digraph Tree {
node [shape=box, style="filled, rounded", color="black", fontname="helvetica"] ;
edge [fontname="helvetica"] ;
0 [label="density <= 0.99\nsquared_error = 1.52\nsamples = 2361\nvalue = 10.51", fillcolor="#f4caac"] ;
1 [label="density <= 0.99\nsquared_error = 0.68\nsamples = 698\nvalue = 11.91", fillcolor="#eead7e"] ;
0 -> 1 [labeldistance=2.5, labelangle=45, headlabel="True"] ;
2 [label="density <= 0.99\nsquared_error = 0.34\nsamples = 238\nvalue = 12.53", fillcolor="#eba069"] ;
1 -> 2 ;
3 [label="sulphates <= 0.74\nsquared_error = 0.31\nsamples = 70\nvalue = 12.96", fillcolor="#e9975b"] ;
2 -> 3 ;
4 [label="residual sugar <= 1.15\nsquared_error = 0.23\nsamples = 63\nvalue = 12.84", fillcolor="#ea995f"] ;
3 -> 4 ;
5 [label="quality <= 6.5\nsquared_error = 0.18\nsamples = 10\nvalue = 12.33", fillcolor="#eca470"] ;
4 -> 5 ;
6 [label="volatile acidity <= 0.36\nsquared_error = 0.07\nsamples = 7\nvalue = 12.14", fillcolor="#eda876"] ;
5 -> 6 ;
7 [label="volatile acidity <= 0.23\nsquared_error = 0.02\nsamples = 6\nvalue = 12.25", fillcolor="#eda673"] ;
6 -> 7 ;
8 [label="squared_error = 0.0\nsamples = 1\nvalue = 12.6", fillcolor="#eb9e67"] ;
7 -> 8 ;
9 [label="quality <= 5.0\nsquared_error = 0.01\nsamples = 5\nvalue = 12.2", fillcolor="#eda774"] ;
7 -> 9 ;
10 [label="squared_error = 0.0\nsamples = 1\nvalue = 12.1", fillcolor="#eda978"] ;
9 -> 10 ;
11 [label="citric acid <= 0.26\nsquared_error = 0.0\nsamples = 4\nvalue = 12.24", fillcolor="#eda673"] ;
9 -> 11 ;
12 [label="fixed acidity <= 6.75\nsquared_error = 0.0\nsamples = 2\nvalue = 12.2", fillcolor="#eda774"] ;
11 -> 12 ;
13 [label="squared_error = 0.0\nsamples = 1\nvalue = 12.2", fillcolor="#eda774"] ;
12 -> 13 ;
14 [label="squared_error = 0.0\nsamples = 1\nvalue = 12.2", fillcolor="#eda774"] ;
12 -> 14 ;
15 [label="pH <= 3.25\nsquared_error = 0.0\nsamples = 2\nvalue = 12.3", fillcolor="#eca571"] ;
11 -> 15 ;
16 [label="squared_error = 0.0\nsamples = 1\nvalue = 12.3", fillcolor="#eca571"] ;
15 -> 16 ;
17 [label="squared_error = 0.0\nsamples = 1\nvalue = 12.3", fillcolor="#eca571"] ;
15 -> 17 ;
18 [label="squared_error = 0.0\nsamples = 1\nvalue = 11.7", fillcolor="#efb185"] ;
6 -> 18 ;
19 [label="citric acid <= 0.31\nsquared_error = 0.02\nsamples = 3\nvalue = 12.97", fillcolor="#e9975b"] ;
5 -> 19 ;
20 [label="squared_error = 0.0\nsamples = 1\nvalue = 12.8", fillcolor="#ea9a61"] ;
19 -> 20 ;
21 [label="density <= 0.99\nsquared_error = 0.0\nsamples = 2\nvalue = 13.05", fillcolor="#e99558"] ;
19 -> 21 ;
22 [label="squared_error = 0.0\nsamples = 1\nvalue = 13.1", fillcolor="#e99457"] ;
21 -> 22 ;
23 [label="squared_error = -0.0\nsamples = 1\nvalue = 13.0", fillcolor="#e9965a"] ;
21 -> 23 ;
24 [label="pH <= 3.03\nsquared_error = 0.19\nsamples = 53\nvalue = 12.93", fillcolor="#ea985c"] ;
4 -> 24 ;
25 [label="fixed acidity <= 6.8\nsquared_error = 0.19\nsamples = 9\nvalue = 12.5", fillcolor="#eca16b"] ;
24 -> 25 ;
26 [label="sulphates <= 0.59\nsquared_error = 0.09\nsamples = 6\nvalue = 12.29", fillcolor="#eca571"] ;
25 -> 26 ;
27 [label="volatile acidity <= 0.32\nsquared_error = 0.01\nsamples = 5\nvalue = 12.19", fillcolor="#eda775"] ;
26 -> 27 ;
28 [label="squared_error = 0.0\nsamples = 2\nvalue = 12.1", fillcolor="#eda978"] ;
27 -> 28 ;
29 [label="free sulfur dioxide <= 23.0\nsquared_error = 0.0\nsamples = 3\nvalue = 12.24", fillcolor="#eda673"] ;
27 -> 29 ;
30 [label="squared_error = 0.0\nsamples = 1\nvalue = 12.3", fillcolor="#eca571"] ;
29 -> 30 ;
31 [label="squared_error = 0.0\nsamples = 2\nvalue = 12.2", fillcolor="#eda774"] ;
29 -> 31 ;
32 [label="squared_error = -0.0\nsamples = 1\nvalue = 13.1", fillcolor="#e99457"] ;
26 -> 32 ;
33 [label="residual sugar <= 1.5\nsquared_error = 0.08\nsamples = 3\nvalue = 12.98", fillcolor="#e9975b"] ;
25 -> 33 ;
34 [label="squared_error = 0.0\nsamples = 1\nvalue = 12.5", fillcolor="#eca06a"] ;
33 -> 34 ;
35 [label="free sulfur dioxide <= 37.5\nsquared_error = 0.01\nsamples = 2\nvalue = 13.13", fillcolor="#e99356"] ;
33 -> 35 ;
36 [label="squared_error = 0.0\nsamples = 1\nvalue = 13.0", fillcolor="#e9965a"] ;
35 -> 36 ;
37 [label="squared_error = 0.0\nsamples = 1\nvalue = 13.2", fillcolor="#e89253"] ;
35 -> 37 ;
38 [label="density <= 0.99\nsquared_error = 0.14\nsamples = 44\nvalue = 13.01", fillcolor="#e9965a"] ;
24 -> 38 ;
39 [label="quality <= 6.5\nsquared_error = 0.07\nsamples = 8\nvalue = 13.44", fillcolor="#e78d4b"] ;
38 -> 39 ;
40 [label="free sulfur dioxide <= 26.0\nsquared_error = 0.02\nsamples = 5\nvalue = 13.27", fillcolor="#e89051"] ;
39 -> 40 ;
41 [label="squared_error = 0.0\nsamples = 1\nvalue = 13.55", fillcolor="#e78a48"] ;
40 -> 41 ;
42 [label="citric acid <= 0.27\nsquared_error = 0.01\nsamples = 4\nvalue = 13.2", fillcolor="#e89253"] ;
40 -> 42 ;
43 [label="volatile acidity <= 0.38\nsquared_error = 0.0\nsamples = 3\nvalue = 13.17", fillcolor="#e99255"] ;
42 -> 43 ;
44 [label="squared_error = 0.0\nsamples = 2\nvalue = 13.2", fillcolor="#e89253"] ;
43 -> 44 ;
45 [label="squared_error = -0.0\nsamples = 1\nvalue = 13.1", fillcolor="#e99457"] ;
43 -> 45 ;
46 [label="squared_error = 0.0\nsamples = 1\nvalue = 13.3", fillcolor="#e89050"] ;
42 -> 46 ;
47 [label="volatile acidity <= 0.26\nsquared_error = 0.02\nsamples = 3\nvalue = 13.73", fillcolor="#e68742"] ;
39 -> 47 ;
48 [label="squared_error = 0.0\nsamples = 1\nvalue = 13.9", fillcolor="#e5833c"] ;
47 -> 48 ;
49 [label="volatile acidity <= 0.3\nsquared_error = 0.0\nsamples = 2\nvalue = 13.65", fillcolor="#e78845"] ;
47 -> 49 ;
50 [label="squared_error = 0.0\nsamples = 1\nvalue = 13.7", fillcolor="#e68743"] ;
49 -> 50 ;
51 [label="squared_error = 0.0\nsamples = 1\nvalue = 13.6", fillcolor="#e78946"] ;
49 -> 51 ;
52 [label="residual sugar <= 1.83\nsquared_error = 0.12\nsamples = 36\nvalue = 12.95", fillcolor="#ea975c"] ;
38 -> 52 ;
53 [label="volatile acidity <= 0.28\nsquared_error = 0.05\nsamples = 13\nvalue = 12.73", fillcolor="#eb9c63"] ;
52 -> 53 ;
54 [label="fixed acidity <= 6.6\nsquared_error = 0.03\nsamples = 7\nvalue = 12.85", fillcolor="#ea995f"] ;
53 -> 54 ;
55 [label="citric acid <= 0.34\nsquared_error = 0.01\nsamples = 6\nvalue = 12.81", fillcolor="#ea9a60"] ;
54 -> 55 ;
56 [label="squared_error = -0.0\nsamples = 4\nvalue = 12.9", fillcolor="#ea985d"] ;
55 -> 56 ;
57 [label="volatile acidity <= 0.19\nsquared_error = 0.0\nsamples = 2\nvalue = 12.7", fillcolor="#eb9c64"] ;
55 -> 57 ;
58 [label="squared_error = 0.0\nsamples = 1\nvalue = 12.7", fillcolor="#eb9c64"] ;
57 -> 58 ;
59 [label="squared_error = -0.0\nsamples = 1\nvalue = 12.7", fillcolor="#eb9c64"] ;
57 -> 59 ;
60 [label="squared_error = -0.0\nsamples = 1\nvalue = 13.4", fillcolor="#e88e4d"] ;
54 -> 60 ;
61 [label="citric acid <= 0.43\nsquared_error = 0.02\nsamples = 6\nvalue = 12.51", fillcolor="#eba06a"] ;
53 -> 61 ;
62 [label="chlorides <= 0.03\nsquared_error = 0.0\nsamples = 5\nvalue = 12.47", fillcolor="#eca16b"] ;
61 -> 62 ;
63 [label="volatile acidity <= 0.32\nsquared_error = 0.0\nsamples = 3\nvalue = 12.52", fillcolor="#eba06a"] ;
62 -> 63 ;
64 [label="squared_error = 0.0\nsamples = 1\nvalue = 12.6", fillcolor="#eb9e67"] ;
63 -> 64 ;
65 [label="squared_error = 0.0\nsamples = 2\nvalue = 12.5", fillcolor="#eca06a"] ;
63 -> 65 ;
66 [label="pH <= 3.27\nsquared_error = 0.0\nsamples = 2\nvalue = 12.4", fillcolor="#eca36e"] ;
62 -> 66 ;
67 [label="squared_error = 0.0\nsamples = 1\nvalue = 12.4", fillcolor="#eca36e"] ;
66 -> 67 ;
68 [label="squared_error = 0.0\nsamples = 1\nvalue = 12.4", fillcolor="#eca36e"] ;
66 -> 68 ;
69 [label="squared_error = 0.0\nsamples = 1\nvalue = 12.8", fillcolor="#ea9a61"] ;
61 -> 69 ;
70 [label="chlorides <= 0.02\nsquared_error = 0.11\nsamples = 23\nvalue = 13.1", fillcolor="#e99457"] ;
52 -> 70 ;
71 [label="density <= 0.99\nsquared_error = 0.02\nsamples = 4\nvalue = 12.78", fillcolor="#ea9b61"] ;
70 -> 71 ;
72 [label="squared_error = 0.0\nsamples = 1\nvalue = 12.5", fillcolor="#eca06a"] ;
71 -> 72 ;
73 [label="total sulfur dioxide <= 108.0\nsquared_error = 0.01\nsamples = 3\nvalue = 12.84", fillcolor="#ea995f"] ;
71 -> 73 ;
74 [label="squared_error = 0.0\nsamples = 2\nvalue = 12.8", fillcolor="#ea9a61"] ;
73 -> 74 ;
75 [label="squared_error = 0.0\nsamples = 1\nvalue = 13.0", fillcolor="#e9965a"] ;
73 -> 75 ;
76 [label="pH <= 3.26\nsquared_error = 0.1\nsamples = 19\nvalue = 13.17", fillcolor="#e99254"] ;
70 -> 76 ;
77 [label="total sulfur dioxide <= 84.5\nsquared_error = 0.06\nsamples = 11\nvalue = 13.33", fillcolor="#e88f4f"] ;
76 -> 77 ;
78 [label="pH <= 3.19\nsquared_error = 0.03\nsamples = 3\nvalue = 12.97", fillcolor="#e9975b"] ;
77 -> 78 ;
79 [label="density <= 0.99\nsquared_error = 0.0\nsamples = 2\nvalue = 12.85", fillcolor="#ea995f"] ;
78 -> 79 ;
80 [label="squared_error = 0.0\nsamples = 1\nvalue = 12.8", fillcolor="#ea9a61"] ;
79 -> 80 ;
81 [label="squared_error = -0.0\nsamples = 1\nvalue = 12.9", fillcolor="#ea985d"] ;
79 -> 81 ;
82 [label="squared_error = 0.0\nsamples = 1\nvalue = 13.2", fillcolor="#e89253"] ;
78 -> 82 ;
83 [label="citric acid <= 0.2\nsquared_error = 0.02\nsamples = 8\nvalue = 13.42", fillcolor="#e88d4c"] ;
77 -> 83 ;
84 [label="squared_error = 0.0\nsamples = 1\nvalue = 13.2", fillcolor="#e89253"] ;
83 -> 84 ;
85 [label="fixed acidity <= 6.1\nsquared_error = 0.01\nsamples = 7\nvalue = 13.48", fillcolor="#e78c4a"] ;
83 -> 85 ;
86 [label="volatile acidity <= 0.34\nsquared_error = 0.0\nsamples = 2\nvalue = 13.63", fillcolor="#e78945"] ;
85 -> 86 ;
87 [label="squared_error = 0.0\nsamples = 1\nvalue = 13.7", fillcolor="#e68743"] ;
86 -> 87 ;
88 [label="squared_error = 0.0\nsamples = 1\nvalue = 13.6", fillcolor="#e78946"] ;
86 -> 88 ;
89 [label="fixed acidity <= 6.95\nsquared_error = 0.0\nsamples = 5\nvalue = 13.41", fillcolor="#e88d4c"] ;
85 -> 89 ;
90 [label="citric acid <= 0.35\nsquared_error = 0.0\nsamples = 3\nvalue = 13.38", fillcolor="#e88e4d"] ;
89 -> 90 ;
91 [label="squared_error = -0.0\nsamples = 2\nvalue = 13.4", fillcolor="#e88e4d"] ;
90 -> 91 ;
92 [label="squared_error = 0.0\nsamples = 1\nvalue = 13.3", fillcolor="#e89050"] ;
90 -> 92 ;
93 [label="citric acid <= 0.34\nsquared_error = 0.0\nsamples = 2\nvalue = 13.5", fillcolor="#e78c4a"] ;
89 -> 93 ;
94 [label="squared_error = 0.0\nsamples = 1\nvalue = 13.5", fillcolor="#e78c4a"] ;
93 -> 94 ;
95 [label="squared_error = 0.0\nsamples = 1\nvalue = 13.5", fillcolor="#e78c4a"] ;
93 -> 95 ;
96 [label="volatile acidity <= 0.21\nsquared_error = 0.07\nsamples = 8\nvalue = 12.94", fillcolor="#ea975c"] ;
76 -> 96 ;
97 [label="squared_error = 0.0\nsamples = 1\nvalue = 13.7", fillcolor="#e68743"] ;
96 -> 97 ;
98 [label="chlorides <= 0.03\nsquared_error = 0.02\nsamples = 7\nvalue = 12.86", fillcolor="#ea995f"] ;
96 -> 98 ;
99 [label="volatile acidity <= 0.3\nsquared_error = 0.0\nsamples = 2\nvalue = 13.05", fillcolor="#e99558"] ;
98 -> 99 ;
100 [label="squared_error = 0.0\nsamples = 1\nvalue = 13.1", fillcolor="#e99457"] ;
99 -> 100 ;
101 [label="squared_error = -0.0\nsamples = 1\nvalue = 13.0", fillcolor="#e9965a"] ;
99 -> 101 ;
102 [label="total sulfur dioxide <= 128.0\nsquared_error = 0.01\nsamples = 5\nvalue = 12.81", fillcolor="#ea9a60"] ;
98 -> 102 ;
103 [label="free sulfur dioxide <= 23.0\nsquared_error = 0.0\nsamples = 3\nvalue = 12.77", fillcolor="#ea9b62"] ;
102 -> 103 ;
104 [label="squared_error = 0.0\nsamples = 1\nvalue = 12.7", fillcolor="#eb9c64"] ;
103 -> 104 ;
105 [label="volatile acidity <= 0.33\nsquared_error = 0.0\nsamples = 2\nvalue = 12.8", fillcolor="#ea9a61"] ;
103 -> 105 ;
106 [label="squared_error = 0.0\nsamples = 1\nvalue = 12.8", fillcolor="#ea9a61"] ;
105 -> 106 ;
107 [label="squared_error = 0.0\nsamples = 1\nvalue = 12.8", fillcolor="#ea9a61"] ;
105 -> 107 ;
108 [label="density <= 0.99\nsquared_error = 0.0\nsamples = 2\nvalue = 12.95", fillcolor="#ea975c"] ;
102 -> 108 ;
109 [label="squared_error = 0.0\nsamples = 1\nvalue = 13.0", fillcolor="#e9965a"] ;
108 -> 109 ;
110 [label="squared_error = 0.0\nsamples = 1\nvalue = 12.9", fillcolor="#ea985d"] ;
108 -> 110 ;
111 [label="residual sugar <= 1.8\nsquared_error = 0.12\nsamples = 7\nvalue = 13.75", fillcolor="#e68641"] ;
3 -> 111 ;
112 [label="pH <= 3.22\nsquared_error = 0.0\nsamples = 2\nvalue = 13.09", fillcolor="#e99457"] ;
111 -> 112 ;
113 [label="squared_error = 0.0\nsamples = 1\nvalue = 13.0", fillcolor="#e9965a"] ;
112 -> 113 ;
114 [label="squared_error = 0.0\nsamples = 1\nvalue = 13.13", fillcolor="#e99356"] ;
112 -> 114 ;
115 [label="sulphates <= 0.78\nsquared_error = 0.0\nsamples = 5\nvalue = 13.94", fillcolor="#e5823b"] ;
111 -> 115 ;
116 [label="squared_error = -0.0\nsamples = 2\nvalue = 13.9", fillcolor="#e5833c"] ;
115 -> 116 ;
117 [label="squared_error = 0.0\nsamples = 3\nvalue = 14.0", fillcolor="#e58139"] ;
115 -> 117 ;
118 [label="residual sugar <= 1.88\nsquared_error = 0.26\nsamples = 168\nvalue = 12.38", fillcolor="#eca36f"] ;
2 -> 118 ;
119 [label="pH <= 3.23\nsquared_error = 0.19\nsamples = 82\nvalue = 12.12", fillcolor="#eda977"] ;
118 -> 119 ;
120 [label="fixed acidity <= 6.3\nsquared_error = 0.16\nsamples = 47\nvalue = 11.93", fillcolor="#eeac7d"] ;
119 -> 120 ;
121 [label="residual sugar <= 0.9\nsquared_error = 0.13\nsamples = 10\nvalue = 11.49", fillcolor="#f0b68c"] ;
120 -> 121 ;
122 [label="total sulfur dioxide <= 24.5\nsquared_error = 0.01\nsamples = 2\nvalue = 10.7", fillcolor="#f3c6a6"] ;
121 -> 122 ;
123 [label="squared_error = 0.0\nsamples = 1\nvalue = 10.8", fillcolor="#f3c4a3"] ;
122 -> 123 ;
124 [label="squared_error = 0.0\nsamples = 1\nvalue = 10.6", fillcolor="#f4c8a9"] ;
122 -> 124 ;
125 [label="total sulfur dioxide <= 103.5\nsquared_error = 0.04\nsamples = 8\nvalue = 11.61", fillcolor="#efb388"] ;
121 -> 125 ;
126 [label="residual sugar <= 1.65\nsquared_error = 0.01\nsamples = 4\nvalue = 11.43", fillcolor="#f0b78e"] ;
125 -> 126 ;
127 [label="volatile acidity <= 0.11\nsquared_error = 0.0\nsamples = 3\nvalue = 11.47", fillcolor="#f0b68d"] ;
126 -> 127 ;
128 [label="squared_error = 0.0\nsamples = 1\nvalue = 11.4", fillcolor="#f0b88f"] ;
127 -> 128 ;
129 [label="squared_error = 0.0\nsamples = 2\nvalue = 11.5", fillcolor="#f0b68c"] ;
127 -> 129 ;
130 [label="squared_error = -0.0\nsamples = 1\nvalue = 11.2", fillcolor="#f1bc95"] ;
126 -> 130 ;
131 [label="fixed acidity <= 5.85\nsquared_error = 0.01\nsamples = 4\nvalue = 11.79", fillcolor="#efb082"] ;
125 -> 131 ;
132 [label="squared_error = 0.0\nsamples = 1\nvalue = 11.6", fillcolor="#efb388"] ;
131 -> 132 ;
133 [label="citric acid <= 0.33\nsquared_error = 0.0\nsamples = 3\nvalue = 11.82", fillcolor="#eeaf81"] ;
131 -> 133 ;
134 [label="squared_error = 0.0\nsamples = 1\nvalue = 11.9", fillcolor="#eead7e"] ;
133 -> 134 ;
135 [label="squared_error = 0.0\nsamples = 2\nvalue = 11.8", fillcolor="#efaf82"] ;
133 -> 135 ;
136 [label="total sulfur dioxide <= 102.0\nsquared_error = 0.11\nsamples = 37\nvalue = 12.04", fillcolor="#edaa7a"] ;
120 -> 136 ;
137 [label="residual sugar <= 1.35\nsquared_error = 0.11\nsamples = 18\nvalue = 11.89", fillcolor="#eead7f"] ;
136 -> 137 ;
138 [label="chlorides <= 0.04\nsquared_error = 0.1\nsamples = 10\nvalue = 11.7", fillcolor="#efb185"] ;
137 -> 138 ;
139 [label="citric acid <= 0.32\nsquared_error = 0.04\nsamples = 7\nvalue = 11.89", fillcolor="#eead7f"] ;
138 -> 139 ;
140 [label="squared_error = 0.0\nsamples = 3\nvalue = 11.7", fillcolor="#efb185"] ;
139 -> 140 ;
141 [label="total sulfur dioxide <= 68.0\nsquared_error = 0.03\nsamples = 4\nvalue = 12.02", fillcolor="#eeab7a"] ;
139 -> 141 ;
142 [label="squared_error = 0.0\nsamples = 1\nvalue = 11.8", fillcolor="#efaf82"] ;
141 -> 142 ;
143 [label="chlorides <= 0.03\nsquared_error = 0.01\nsamples = 3\nvalue = 12.12", fillcolor="#eda877"] ;
141 -> 143 ;
144 [label="squared_error = 0.0\nsamples = 1\nvalue = 12.3", fillcolor="#eca571"] ;
143 -> 144 ;
145 [label="residual sugar <= 0.95\nsquared_error = 0.0\nsamples = 2\nvalue = 12.07", fillcolor="#edaa79"] ;
143 -> 145 ;
146 [label="squared_error = 0.0\nsamples = 1\nvalue = 12.0", fillcolor="#eeab7b"] ;
145 -> 146 ;
147 [label="squared_error = -0.0\nsamples = 1\nvalue = 12.1", fillcolor="#eda978"] ;
145 -> 147 ;
148 [label="sulphates <= 0.43\nsquared_error = 0.01\nsamples = 3\nvalue = 11.33", fillcolor="#f1b991"] ;
138 -> 148 ;
149 [label="quality <= 5.0\nsquared_error = 0.0\nsamples = 2\nvalue = 11.42", fillcolor="#f0b78e"] ;
148 -> 149 ;
150 [label="squared_error = 0.0\nsamples = 1\nvalue = 11.4", fillcolor="#f0b88f"] ;
149 -> 150 ;
151 [label="squared_error = 0.0\nsamples = 1\nvalue = 11.45", fillcolor="#f0b78d"] ;
149 -> 151 ;
152 [label="squared_error = -0.0\nsamples = 1\nvalue = 11.2", fillcolor="#f1bc95"] ;
148 -> 152 ;
153 [label="volatile acidity <= 0.3\nsquared_error = 0.04\nsamples = 8\nvalue = 12.08", fillcolor="#eda978"] ;
137 -> 153 ;
154 [label="volatile acidity <= 0.14\nsquared_error = 0.02\nsamples = 7\nvalue = 12.04", fillcolor="#edaa7a"] ;
153 -> 154 ;
155 [label="squared_error = 0.0\nsamples = 1\nvalue = 11.7", fillcolor="#efb185"] ;
154 -> 155 ;
156 [label="citric acid <= 0.39\nsquared_error = 0.01\nsamples = 6\nvalue = 12.07", fillcolor="#edaa79"] ;
154 -> 156 ;
157 [label="chlorides <= 0.03\nsquared_error = 0.01\nsamples = 5\nvalue = 12.03", fillcolor="#eeaa7a"] ;
156 -> 157 ;
158 [label="squared_error = 0.0\nsamples = 1\nvalue = 12.3", fillcolor="#eca571"] ;
157 -> 158 ;
159 [label="squared_error = 0.0\nsamples = 4\nvalue = 12.0", fillcolor="#eeab7b"] ;
157 -> 159 ;
160 [label="squared_error = 0.0\nsamples = 1\nvalue = 12.2", fillcolor="#eda774"] ;
156 -> 160 ;
161 [label="squared_error = 0.0\nsamples = 1\nvalue = 12.6", fillcolor="#eb9e67"] ;
153 -> 161 ;
162 [label="chlorides <= 0.02\nsquared_error = 0.08\nsamples = 19\nvalue = 12.18", fillcolor="#eda775"] ;
136 -> 162 ;
163 [label="squared_error = 0.0\nsamples = 2\nvalue = 11.7", fillcolor="#efb185"] ;
162 -> 163 ;
164 [label="sulphates <= 0.36\nsquared_error = 0.05\nsamples = 17\nvalue = 12.24", fillcolor="#eda673"] ;
162 -> 164 ;
165 [label="sulphates <= 0.34\nsquared_error = 0.01\nsamples = 3\nvalue = 12.52", fillcolor="#eba06a"] ;
164 -> 165 ;
166 [label="squared_error = 0.0\nsamples = 1\nvalue = 12.7", fillcolor="#eb9c64"] ;
165 -> 166 ;
167 [label="citric acid <= 0.3\nsquared_error = 0.0\nsamples = 2\nvalue = 12.47", fillcolor="#eca16c"] ;
165 -> 167 ;
168 [label="squared_error = 0.0\nsamples = 1\nvalue = 12.4", fillcolor="#eca36e"] ;
167 -> 168 ;
169 [label="squared_error = 0.0\nsamples = 1\nvalue = 12.5", fillcolor="#eca06a"] ;
167 -> 169 ;
170 [label="free sulfur dioxide <= 40.5\nsquared_error = 0.04\nsamples = 14\nvalue = 12.2", fillcolor="#eda774"] ;
164 -> 170 ;
171 [label="volatile acidity <= 0.31\nsquared_error = 0.04\nsamples = 12\nvalue = 12.12", fillcolor="#eda877"] ;
170 -> 171 ;
172 [label="total sulfur dioxide <= 105.5\nsquared_error = 0.01\nsamples = 10\nvalue = 12.08", fillcolor="#eda978"] ;
171 -> 172 ;
173 [label="squared_error = 0.0\nsamples = 1\nvalue = 12.4", fillcolor="#eca36e"] ;
172 -> 173 ;
174 [label="total sulfur dioxide <= 114.0\nsquared_error = 0.0\nsamples = 9\nvalue = 12.06", fillcolor="#edaa79"] ;
172 -> 174 ;
175 [label="chlorides <= 0.03\nsquared_error = 0.0\nsamples = 4\nvalue = 11.98", fillcolor="#eeab7c"] ;
174 -> 175 ;
176 [label="squared_error = 0.0\nsamples = 1\nvalue = 11.9", fillcolor="#eead7e"] ;
175 -> 176 ;
177 [label="squared_error = 0.0\nsamples = 3\nvalue = 12.0", fillcolor="#eeab7b"] ;
175 -> 177 ;
178 [label="volatile acidity <= 0.28\nsquared_error = 0.0\nsamples = 5\nvalue = 12.1", fillcolor="#eda978"] ;
174 -> 178 ;
179 [label="squared_error = 0.0\nsamples = 2\nvalue = 12.1", fillcolor="#eda978"] ;
178 -> 179 ;
180 [label="squared_error = 0.0\nsamples = 3\nvalue = 12.1", fillcolor="#eda978"] ;
178 -> 180 ;
181 [label="volatile acidity <= 0.33\nsquared_error = 0.12\nsamples = 2\nvalue = 12.45", fillcolor="#eca26c"] ;
171 -> 181 ;
182 [label="squared_error = 0.0\nsamples = 1\nvalue = 12.8", fillcolor="#ea9a61"] ;
181 -> 182 ;
183 [label="squared_error = 0.0\nsamples = 1\nvalue = 12.1", fillcolor="#eda978"] ;
181 -> 183 ;
184 [label="squared_error = -0.0\nsamples = 2\nvalue = 12.4", fillcolor="#eca36e"] ;
170 -> 184 ;
185 [label="free sulfur dioxide <= 22.5\nsquared_error = 0.1\nsamples = 35\nvalue = 12.38", fillcolor="#eca36e"] ;
119 -> 185 ;
186 [label="fixed acidity <= 6.15\nsquared_error = 0.11\nsamples = 8\nvalue = 12.02", fillcolor="#eeab7a"] ;
185 -> 186 ;
187 [label="citric acid <= 0.27\nsquared_error = 0.03\nsamples = 5\nvalue = 11.81", fillcolor="#eeaf81"] ;
186 -> 187 ;
188 [label="squared_error = 0.0\nsamples = 1\nvalue = 11.4", fillcolor="#f0b88f"] ;
187 -> 188 ;
189 [label="sulphates <= 0.34\nsquared_error = 0.0\nsamples = 4\nvalue = 11.88", fillcolor="#eead7f"] ;
187 -> 189 ;
190 [label="squared_error = 0.0\nsamples = 1\nvalue = 11.8", fillcolor="#efaf82"] ;
189 -> 190 ;
191 [label="density <= 0.99\nsquared_error = 0.0\nsamples = 3\nvalue = 11.92", fillcolor="#eead7d"] ;
189 -> 191 ;
192 [label="squared_error = 0.0\nsamples = 1\nvalue = 12.0", fillcolor="#eeab7b"] ;
191 -> 192 ;
193 [label="citric acid <= 0.42\nsquared_error = 0.0\nsamples = 2\nvalue = 11.9", fillcolor="#eead7e"] ;
191 -> 193 ;
194 [label="squared_error = 0.0\nsamples = 1\nvalue = 11.9", fillcolor="#eead7e"] ;
193 -> 194 ;
195 [label="squared_error = -0.0\nsamples = 1\nvalue = 11.9", fillcolor="#eead7e"] ;
193 -> 195 ;
196 [label="citric acid <= 0.38\nsquared_error = 0.04\nsamples = 3\nvalue = 12.38", fillcolor="#eca36f"] ;
186 -> 196 ;
197 [label="residual sugar <= 1.65\nsquared_error = 0.0\nsamples = 2\nvalue = 12.27", fillcolor="#eda572"] ;
196 -> 197 ;
198 [label="squared_error = 0.0\nsamples = 1\nvalue = 12.3", fillcolor="#eca571"] ;
197 -> 198 ;
199 [label="squared_error = 0.0\nsamples = 1\nvalue = 12.2", fillcolor="#eda774"] ;
197 -> 199 ;
200 [label="squared_error = -0.0\nsamples = 1\nvalue = 12.7", fillcolor="#eb9c64"] ;
196 -> 200 ;
201 [label="pH <= 3.43\nsquared_error = 0.06\nsamples = 27\nvalue = 12.47", fillcolor="#eca16b"] ;
185 -> 201 ;
202 [label="chlorides <= 0.03\nsquared_error = 0.04\nsamples = 24\nvalue = 12.51", fillcolor="#eba06a"] ;
201 -> 202 ;
203 [label="fixed acidity <= 6.55\nsquared_error = 0.01\nsamples = 4\nvalue = 12.72", fillcolor="#eb9c63"] ;
202 -> 203 ;
204 [label="density <= 0.99\nsquared_error = 0.0\nsamples = 3\nvalue = 12.67", fillcolor="#eb9d65"] ;
203 -> 204 ;
205 [label="squared_error = -0.0\nsamples = 2\nvalue = 12.7", fillcolor="#eb9c64"] ;
204 -> 205 ;
206 [label="squared_error = -0.0\nsamples = 1\nvalue = 12.6", fillcolor="#eb9e67"] ;
204 -> 206 ;
207 [label="squared_error = 0.0\nsamples = 1\nvalue = 12.8", fillcolor="#ea9a61"] ;
203 -> 207 ;
208 [label="sulphates <= 0.44\nsquared_error = 0.04\nsamples = 20\nvalue = 12.44", fillcolor="#eca26d"] ;
202 -> 208 ;
209 [label="pH <= 3.27\nsquared_error = 0.01\nsamples = 13\nvalue = 12.5", fillcolor="#eca06a"] ;
208 -> 209 ;
210 [label="chlorides <= 0.04\nsquared_error = 0.0\nsamples = 5\nvalue = 12.61", fillcolor="#eb9e67"] ;
209 -> 210 ;
211 [label="squared_error = 0.0\nsamples = 4\nvalue = 12.6", fillcolor="#eb9e67"] ;
210 -> 211 ;
212 [label="squared_error = -0.0\nsamples = 1\nvalue = 12.7", fillcolor="#eb9c64"] ;
210 -> 212 ;
213 [label="sulphates <= 0.36\nsquared_error = 0.01\nsamples = 8\nvalue = 12.45", fillcolor="#eca26c"] ;
209 -> 213 ;
214 [label="squared_error = 0.0\nsamples = 1\nvalue = 12.2", fillcolor="#eda774"] ;
213 -> 214 ;
215 [label="free sulfur dioxide <= 26.5\nsquared_error = 0.0\nsamples = 7\nvalue = 12.46", fillcolor="#eca16c"] ;
213 -> 215 ;
216 [label="citric acid <= 0.24\nsquared_error = 0.0\nsamples = 4\nvalue = 12.5", fillcolor="#eca06a"] ;
215 -> 216 ;
217 [label="squared_error = 0.0\nsamples = 1\nvalue = 12.5", fillcolor="#eca06a"] ;
216 -> 217 ;
218 [label="squared_error = 0.0\nsamples = 3\nvalue = 12.5", fillcolor="#eca06a"] ;
216 -> 218 ;
219 [label="density <= 0.99\nsquared_error = 0.0\nsamples = 3\nvalue = 12.38", fillcolor="#eca36f"] ;
215 -> 219 ;
220 [label="squared_error = 0.0\nsamples = 1\nvalue = 12.3", fillcolor="#eca571"] ;
219 -> 220 ;
221 [label="squared_error = 0.0\nsamples = 2\nvalue = 12.4", fillcolor="#eca36e"] ;
219 -> 221 ;
222 [label="residual sugar <= 1.55\nsquared_error = 0.07\nsamples = 7\nvalue = 12.29", fillcolor="#eca571"] ;
208 -> 222 ;
223 [label="density <= 0.99\nsquared_error = 0.02\nsamples = 5\nvalue = 12.13", fillcolor="#eda877"] ;
222 -> 223 ;
224 [label="squared_error = 0.0\nsamples = 1\nvalue = 12.3", fillcolor="#eca571"] ;
223 -> 224 ;
225 [label="density <= 0.99\nsquared_error = 0.0\nsamples = 4\nvalue = 12.05", fillcolor="#edaa79"] ;
223 -> 225 ;
226 [label="squared_error = 0.0\nsamples = 2\nvalue = 12.1", fillcolor="#eda978"] ;
225 -> 226 ;
227 [label="squared_error = -0.0\nsamples = 2\nvalue = 12.0", fillcolor="#eeab7b"] ;
225 -> 227 ;
228 [label="total sulfur dioxide <= 118.5\nsquared_error = 0.02\nsamples = 2\nvalue = 12.6", fillcolor="#eb9e67"] ;
222 -> 228 ;
229 [label="squared_error = 0.0\nsamples = 1\nvalue = 12.4", fillcolor="#eca36e"] ;
228 -> 229 ;
230 [label="squared_error = 0.0\nsamples = 1\nvalue = 12.7", fillcolor="#eb9c64"] ;
228 -> 230 ;
231 [label="total sulfur dioxide <= 95.0\nsquared_error = 0.04\nsamples = 3\nvalue = 11.97", fillcolor="#eeac7c"] ;
201 -> 231 ;
232 [label="squared_error = 0.0\nsamples = 1\nvalue = 11.7", fillcolor="#efb185"] ;
231 -> 232 ;
233 [label="free sulfur dioxide <= 26.5\nsquared_error = 0.01\nsamples = 2\nvalue = 12.1", fillcolor="#eda978"] ;
231 -> 233 ;
234 [label="squared_error = 0.0\nsamples = 1\nvalue = 12.2", fillcolor="#eda774"] ;
233 -> 234 ;
235 [label="squared_error = 0.0\nsamples = 1\nvalue = 12.0", fillcolor="#eeab7b"] ;
233 -> 235 ;
236 [label="total sulfur dioxide <= 144.5\nsquared_error = 0.21\nsamples = 86\nvalue = 12.62", fillcolor="#eb9e67"] ;
118 -> 236 ;
237 [label="volatile acidity <= 0.37\nsquared_error = 0.2\nsamples = 75\nvalue = 12.7", fillcolor="#eb9c64"] ;
236 -> 237 ;
238 [label="density <= 0.99\nsquared_error = 0.16\nsamples = 56\nvalue = 12.58", fillcolor="#eb9f68"] ;
237 -> 238 ;
239 [label="residual sugar <= 4.15\nsquared_error = 0.03\nsamples = 28\nvalue = 12.8", fillcolor="#ea9a61"] ;
238 -> 239 ;
240 [label="fixed acidity <= 6.55\nsquared_error = 0.02\nsamples = 23\nvalue = 12.76", fillcolor="#ea9b62"] ;
239 -> 240 ;
241 [label="citric acid <= 0.35\nsquared_error = 0.01\nsamples = 18\nvalue = 12.71", fillcolor="#eb9c64"] ;
240 -> 241 ;
242 [label="volatile acidity <= 0.28\nsquared_error = 0.01\nsamples = 16\nvalue = 12.73", fillcolor="#ea9c63"] ;
241 -> 242 ;
243 [label="chlorides <= 0.03\nsquared_error = 0.0\nsamples = 7\nvalue = 12.78", fillcolor="#ea9b61"] ;
242 -> 243 ;
244 [label="squared_error = 0.0\nsamples = 2\nvalue = 12.75", fillcolor="#ea9b62"] ;
243 -> 244 ;
245 [label="total sulfur dioxide <= 111.0\nsquared_error = 0.0\nsamples = 5\nvalue = 12.8", fillcolor="#ea9a61"] ;
243 -> 245 ;
246 [label="squared_error = 0.0\nsamples = 1\nvalue = 12.8", fillcolor="#ea9a61"] ;
245 -> 246 ;
247 [label="squared_error = 0.0\nsamples = 4\nvalue = 12.8", fillcolor="#ea9a61"] ;
245 -> 247 ;
248 [label="chlorides <= 0.05\nsquared_error = 0.01\nsamples = 9\nvalue = 12.7", fillcolor="#eb9c64"] ;
242 -> 248 ;
249 [label="free sulfur dioxide <= 31.5\nsquared_error = 0.01\nsamples = 8\nvalue = 12.68", fillcolor="#eb9d65"] ;
248 -> 249 ;
250 [label="sulphates <= 0.41\nsquared_error = 0.0\nsamples = 4\nvalue = 12.6", fillcolor="#eb9e67"] ;
249 -> 250 ;
251 [label="squared_error = 0.0\nsamples = 1\nvalue = 12.7", fillcolor="#eb9c64"] ;
250 -> 251 ;
252 [label="citric acid <= 0.3\nsquared_error = 0.0\nsamples = 3\nvalue = 12.57", fillcolor="#eb9f68"] ;
250 -> 252 ;
253 [label="squared_error = -0.0\nsamples = 2\nvalue = 12.6", fillcolor="#eb9e67"] ;
252 -> 253 ;
254 [label="squared_error = 0.0\nsamples = 1\nvalue = 12.5", fillcolor="#eca06a"] ;
252 -> 254 ;
255 [label="free sulfur dioxide <= 33.0\nsquared_error = 0.0\nsamples = 4\nvalue = 12.71", fillcolor="#eb9c63"] ;
249 -> 255 ;
256 [label="squared_error = 0.0\nsamples = 1\nvalue = 12.8", fillcolor="#ea9a61"] ;
255 -> 256 ;
257 [label="squared_error = -0.0\nsamples = 3\nvalue = 12.7", fillcolor="#eb9c64"] ;
255 -> 257 ;
258 [label="squared_error = 0.0\nsamples = 1\nvalue = 12.8", fillcolor="#ea9a61"] ;
248 -> 258 ;
259 [label="citric acid <= 0.37\nsquared_error = 0.0\nsamples = 2\nvalue = 12.45", fillcolor="#eca26c"] ;
241 -> 259 ;
260 [label="squared_error = 0.0\nsamples = 1\nvalue = 12.5", fillcolor="#eca06a"] ;
259 -> 260 ;
261 [label="squared_error = 0.0\nsamples = 1\nvalue = 12.4", fillcolor="#eca36e"] ;
259 -> 261 ;
262 [label="density <= 0.99\nsquared_error = 0.01\nsamples = 5\nvalue = 12.9", fillcolor="#ea985d"] ;
240 -> 262 ;
263 [label="sulphates <= 0.35\nsquared_error = 0.0\nsamples = 3\nvalue = 12.96", fillcolor="#ea975b"] ;
262 -> 263 ;
264 [label="squared_error = 0.0\nsamples = 1\nvalue = 12.9", fillcolor="#ea985d"] ;
263 -> 264 ;
265 [label="squared_error = 0.0\nsamples = 2\nvalue = 13.0", fillcolor="#e9965a"] ;
263 -> 265 ;
266 [label="squared_error = -0.0\nsamples = 2\nvalue = 12.7", fillcolor="#eb9c64"] ;
262 -> 266 ;
267 [label="total sulfur dioxide <= 126.5\nsquared_error = 0.06\nsamples = 5\nvalue = 12.99", fillcolor="#e9965a"] ;
239 -> 267 ;
268 [label="density <= 0.99\nsquared_error = 0.0\nsamples = 4\nvalue = 13.08", fillcolor="#e99457"] ;
267 -> 268 ;
269 [label="squared_error = 0.0\nsamples = 1\nvalue = 13.0", fillcolor="#e9965a"] ;
268 -> 269 ;
270 [label="squared_error = 0.0\nsamples = 3\nvalue = 13.1", fillcolor="#e99457"] ;
268 -> 270 ;
271 [label="squared_error = -0.0\nsamples = 1\nvalue = 12.4", fillcolor="#eca36e"] ;
267 -> 271 ;
272 [label="pH <= 3.21\nsquared_error = 0.21\nsamples = 28\nvalue = 12.38", fillcolor="#eca36f"] ;
238 -> 272 ;
273 [label="residual sugar <= 3.25\nsquared_error = 0.19\nsamples = 17\nvalue = 12.2", fillcolor="#eda775"] ;
272 -> 273 ;
274 [label="free sulfur dioxide <= 30.5\nsquared_error = 0.16\nsamples = 12\nvalue = 12.01", fillcolor="#eeab7b"] ;
273 -> 274 ;
275 [label="chlorides <= 0.03\nsquared_error = 0.1\nsamples = 9\nvalue = 12.16", fillcolor="#eda876"] ;
274 -> 275 ;
276 [label="residual sugar <= 2.75\nsquared_error = 0.04\nsamples = 3\nvalue = 11.8", fillcolor="#efaf82"] ;
275 -> 276 ;
277 [label="squared_error = 0.0\nsamples = 1\nvalue = 11.4", fillcolor="#f0b88f"] ;
276 -> 277 ;
278 [label="squared_error = 0.0\nsamples = 2\nvalue = 11.9", fillcolor="#eead7e"] ;
276 -> 278 ;
279 [label="residual sugar <= 2.85\nsquared_error = 0.03\nsamples = 6\nvalue = 12.36", fillcolor="#eca46f"] ;
275 -> 279 ;
280 [label="pH <= 3.15\nsquared_error = 0.01\nsamples = 4\nvalue = 12.48", fillcolor="#eca16b"] ;
279 -> 280 ;
281 [label="squared_error = 0.0\nsamples = 2\nvalue = 12.4", fillcolor="#eca36e"] ;
280 -> 281 ;
282 [label="squared_error = 0.0\nsamples = 2\nvalue = 12.6", fillcolor="#eb9e67"] ;
280 -> 282 ;
283 [label="free sulfur dioxide <= 23.0\nsquared_error = 0.01\nsamples = 2\nvalue = 12.2", fillcolor="#eda774"] ;
279 -> 283 ;
284 [label="squared_error = 0.0\nsamples = 1\nvalue = 12.1", fillcolor="#eda978"] ;
283 -> 284 ;
285 [label="squared_error = 0.0\nsamples = 1\nvalue = 12.3", fillcolor="#eca571"] ;
283 -> 285 ;
286 [label="chlorides <= 0.03\nsquared_error = 0.02\nsamples = 3\nvalue = 11.5", fillcolor="#f0b68c"] ;
274 -> 286 ;
287 [label="squared_error = 0.0\nsamples = 1\nvalue = 11.3", fillcolor="#f1ba92"] ;
286 -> 287 ;
288 [label="free sulfur dioxide <= 56.5\nsquared_error = 0.0\nsamples = 2\nvalue = 11.57", fillcolor="#f0b489"] ;
286 -> 288 ;
289 [label="squared_error = 0.0\nsamples = 1\nvalue = 11.6", fillcolor="#efb388"] ;
288 -> 289 ;
290 [label="squared_error = -0.0\nsamples = 1\nvalue = 11.5", fillcolor="#f0b68c"] ;
288 -> 290 ;
291 [label="free sulfur dioxide <= 40.0\nsquared_error = 0.06\nsamples = 5\nvalue = 12.57", fillcolor="#eb9f68"] ;
273 -> 291 ;
292 [label="sulphates <= 0.29\nsquared_error = 0.02\nsamples = 4\nvalue = 12.67", fillcolor="#eb9d65"] ;
291 -> 292 ;
293 [label="squared_error = 0.0\nsamples = 1\nvalue = 13.0", fillcolor="#e9965a"] ;
292 -> 293 ;
294 [label="citric acid <= 0.33\nsquared_error = 0.01\nsamples = 3\nvalue = 12.62", fillcolor="#eb9e67"] ;
292 -> 294 ;
295 [label="free sulfur dioxide <= 35.0\nsquared_error = 0.0\nsamples = 2\nvalue = 12.53", fillcolor="#eba069"] ;
294 -> 295 ;
296 [label="squared_error = 0.0\nsamples = 1\nvalue = 12.5", fillcolor="#eca06a"] ;
295 -> 296 ;
297 [label="squared_error = -0.0\nsamples = 1\nvalue = 12.6", fillcolor="#eb9e67"] ;
295 -> 297 ;
298 [label="squared_error = 0.0\nsamples = 1\nvalue = 12.7", fillcolor="#eb9c64"] ;
294 -> 298 ;
299 [label="squared_error = -0.0\nsamples = 1\nvalue = 12.2", fillcolor="#eda774"] ;
291 -> 299 ;
300 [label="volatile acidity <= 0.24\nsquared_error = 0.1\nsamples = 11\nvalue = 12.65", fillcolor="#eb9d66"] ;
272 -> 300 ;
301 [label="quality <= 6.5\nsquared_error = 0.04\nsamples = 4\nvalue = 12.99", fillcolor="#e9965a"] ;
300 -> 301 ;
302 [label="squared_error = 0.0\nsamples = 3\nvalue = 12.9", fillcolor="#ea985d"] ;
301 -> 302 ;
303 [label="squared_error = 0.0\nsamples = 1\nvalue = 13.5", fillcolor="#e78c4a"] ;
301 -> 303 ;
304 [label="sulphates <= 0.47\nsquared_error = 0.02\nsamples = 7\nvalue = 12.44", fillcolor="#eca26d"] ;
300 -> 304 ;
305 [label="fixed acidity <= 6.2\nsquared_error = 0.0\nsamples = 2\nvalue = 12.25", fillcolor="#eda673"] ;
304 -> 305 ;
306 [label="squared_error = 0.0\nsamples = 1\nvalue = 12.2", fillcolor="#eda774"] ;
305 -> 306 ;
307 [label="squared_error = 0.0\nsamples = 1\nvalue = 12.3", fillcolor="#eca571"] ;
305 -> 307 ;
308 [label="volatile acidity <= 0.27\nsquared_error = 0.0\nsamples = 5\nvalue = 12.54", fillcolor="#eba069"] ;
304 -> 308 ;
309 [label="squared_error = 0.0\nsamples = 2\nvalue = 12.6", fillcolor="#eb9e67"] ;
308 -> 309 ;
310 [label="residual sugar <= 3.9\nsquared_error = 0.0\nsamples = 3\nvalue = 12.52", fillcolor="#eba06a"] ;
308 -> 310 ;
311 [label="squared_error = 0.0\nsamples = 2\nvalue = 12.5", fillcolor="#eca06a"] ;
310 -> 311 ;
312 [label="squared_error = -0.0\nsamples = 1\nvalue = 12.6", fillcolor="#eb9e67"] ;
310 -> 312 ;
313 [label="free sulfur dioxide <= 50.5\nsquared_error = 0.15\nsamples = 19\nvalue = 13.04", fillcolor="#e99559"] ;
237 -> 313 ;
314 [label="sulphates <= 0.68\nsquared_error = 0.1\nsamples = 17\nvalue = 13.12", fillcolor="#e99456"] ;
313 -> 314 ;
315 [label="quality <= 6.5\nsquared_error = 0.08\nsamples = 15\nvalue = 13.06", fillcolor="#e99558"] ;
314 -> 315 ;
316 [label="citric acid <= 0.43\nsquared_error = 0.07\nsamples = 7\nvalue = 13.26", fillcolor="#e89051"] ;
315 -> 316 ;
317 [label="free sulfur dioxide <= 13.5\nsquared_error = 0.03\nsamples = 6\nvalue = 13.4", fillcolor="#e88e4d"] ;
316 -> 317 ;
318 [label="squared_error = 0.0\nsamples = 1\nvalue = 13.0", fillcolor="#e9965a"] ;
317 -> 318 ;
319 [label="total sulfur dioxide <= 135.5\nsquared_error = 0.01\nsamples = 5\nvalue = 13.46", fillcolor="#e78c4b"] ;
317 -> 319 ;
320 [label="squared_error = 0.0\nsamples = 4\nvalue = 13.4", fillcolor="#e88e4d"] ;
319 -> 320 ;
321 [label="squared_error = -0.0\nsamples = 1\nvalue = 13.6", fillcolor="#e78946"] ;
319 -> 321 ;
322 [label="squared_error = 0.0\nsamples = 1\nvalue = 12.9", fillcolor="#ea985d"] ;
316 -> 322 ;
323 [label="residual sugar <= 2.95\nsquared_error = 0.02\nsamples = 8\nvalue = 12.88", fillcolor="#ea985e"] ;
315 -> 323 ;
324 [label="squared_error = 0.0\nsamples = 2\nvalue = 12.6", fillcolor="#eb9e67"] ;
323 -> 324 ;
325 [label="chlorides <= 0.04\nsquared_error = 0.01\nsamples = 6\nvalue = 12.93", fillcolor="#ea975c"] ;
323 -> 325 ;
326 [label="pH <= 3.2\nsquared_error = 0.0\nsamples = 4\nvalue = 12.88", fillcolor="#ea995e"] ;
325 -> 326 ;
327 [label="fixed acidity <= 6.6\nsquared_error = 0.0\nsamples = 2\nvalue = 12.92", fillcolor="#ea985d"] ;
326 -> 327 ;
328 [label="squared_error = 0.0\nsamples = 1\nvalue = 13.0", fillcolor="#e9965a"] ;
327 -> 328 ;
329 [label="squared_error = 0.0\nsamples = 1\nvalue = 12.89", fillcolor="#ea985e"] ;
327 -> 329 ;
330 [label="squared_error = 0.0\nsamples = 2\nvalue = 12.8", fillcolor="#ea9a61"] ;
326 -> 330 ;
331 [label="free sulfur dioxide <= 26.0\nsquared_error = 0.0\nsamples = 2\nvalue = 13.0", fillcolor="#e9965a"] ;
325 -> 331 ;
332 [label="squared_error = 0.0\nsamples = 1\nvalue = 13.0", fillcolor="#e9965a"] ;
331 -> 332 ;
333 [label="squared_error = 0.0\nsamples = 1\nvalue = 13.0", fillcolor="#e9965a"] ;
331 -> 333 ;
334 [label="free sulfur dioxide <= 20.5\nsquared_error = 0.02\nsamples = 2\nvalue = 13.6", fillcolor="#e78946"] ;
314 -> 334 ;
335 [label="squared_error = 0.0\nsamples = 1\nvalue = 13.7", fillcolor="#e68743"] ;
334 -> 335 ;
336 [label="squared_error = 0.0\nsamples = 1\nvalue = 13.4", fillcolor="#e88e4d"] ;
334 -> 336 ;
337 [label="sulphates <= 0.5\nsquared_error = 0.04\nsamples = 2\nvalue = 12.33", fillcolor="#eca470"] ;
313 -> 337 ;
338 [label="squared_error = 0.0\nsamples = 1\nvalue = 12.2", fillcolor="#eda774"] ;
337 -> 338 ;
339 [label="squared_error = -0.0\nsamples = 1\nvalue = 12.6", fillcolor="#eb9e67"] ;
337 -> 339 ;
340 [label="pH <= 3.34\nsquared_error = 0.09\nsamples = 11\nvalue = 12.26", fillcolor="#eda572"] ;
236 -> 340 ;
341 [label="citric acid <= 0.33\nsquared_error = 0.07\nsamples = 9\nvalue = 12.17", fillcolor="#eda775"] ;
340 -> 341 ;
342 [label="volatile acidity <= 0.44\nsquared_error = 0.03\nsamples = 6\nvalue = 12.05", fillcolor="#edaa79"] ;
341 -> 342 ;
343 [label="pH <= 3.16\nsquared_error = 0.01\nsamples = 5\nvalue = 12.09", fillcolor="#eda978"] ;
342 -> 343 ;
344 [label="squared_error = 0.0\nsamples = 2\nvalue = 12.0", fillcolor="#eeab7b"] ;
343 -> 344 ;
345 [label="residual sugar <= 2.9\nsquared_error = 0.0\nsamples = 3\nvalue = 12.16", fillcolor="#eda876"] ;
343 -> 345 ;
346 [label="squared_error = 0.0\nsamples = 1\nvalue = 12.2", fillcolor="#eda774"] ;
345 -> 346 ;
347 [label="squared_error = -0.0\nsamples = 2\nvalue = 12.1", fillcolor="#eda978"] ;
345 -> 347 ;
348 [label="squared_error = 0.0\nsamples = 1\nvalue = 11.5", fillcolor="#f0b68c"] ;
342 -> 348 ;
349 [label="sulphates <= 0.38\nsquared_error = 0.02\nsamples = 3\nvalue = 12.5", fillcolor="#eca06a"] ;
341 -> 349 ;
350 [label="squared_error = 0.0\nsamples = 2\nvalue = 12.4", fillcolor="#eca36e"] ;
349 -> 350 ;
351 [label="squared_error = -0.0\nsamples = 1\nvalue = 12.7", fillcolor="#eb9c64"] ;
349 -> 351 ;
352 [label="pH <= 3.42\nsquared_error = 0.0\nsamples = 2\nvalue = 12.66", fillcolor="#eb9d65"] ;
340 -> 352 ;
353 [label="squared_error = 0.0\nsamples = 1\nvalue = 12.7", fillcolor="#eb9c64"] ;
352 -> 353 ;
354 [label="squared_error = -0.0\nsamples = 1\nvalue = 12.6", fillcolor="#eb9e67"] ;
352 -> 354 ;
355 [label="residual sugar <= 3.93\nsquared_error = 0.54\nsamples = 460\nvalue = 11.58", fillcolor="#efb489"] ;
1 -> 355 ;
356 [label="density <= 0.99\nsquared_error = 0.4\nsamples = 349\nvalue = 11.35", fillcolor="#f0b990"] ;
355 -> 356 ;
357 [label="fixed acidity <= 7.15\nsquared_error = 0.31\nsamples = 188\nvalue = 11.65", fillcolor="#efb287"] ;
356 -> 357 ;
358 [label="residual sugar <= 1.43\nsquared_error = 0.23\nsamples = 134\nvalue = 11.48", fillcolor="#f0b68c"] ;
357 -> 358 ;
359 [label="chlorides <= 0.06\nsquared_error = 0.1\nsamples = 62\nvalue = 11.24", fillcolor="#f1bb94"] ;
358 -> 359 ;
360 [label="density <= 0.99\nsquared_error = 0.09\nsamples = 59\nvalue = 11.2", fillcolor="#f1bc95"] ;
359 -> 360 ;
361 [label="residual sugar <= 1.25\nsquared_error = 0.13\nsamples = 14\nvalue = 11.41", fillcolor="#f0b78e"] ;
360 -> 361 ;
362 [label="volatile acidity <= 0.46\nsquared_error = 0.03\nsamples = 12\nvalue = 11.23", fillcolor="#f1bb94"] ;
361 -> 362 ;
363 [label="fixed acidity <= 6.75\nsquared_error = 0.01\nsamples = 10\nvalue = 11.31", fillcolor="#f1b992"] ;
362 -> 363 ;
364 [label="free sulfur dioxide <= 31.5\nsquared_error = 0.0\nsamples = 7\nvalue = 11.27", fillcolor="#f1ba93"] ;
363 -> 364 ;
365 [label="residual sugar <= 1.1\nsquared_error = 0.0\nsamples = 5\nvalue = 11.3", fillcolor="#f1ba92"] ;
364 -> 365 ;
366 [label="squared_error = 0.0\nsamples = 1\nvalue = 11.3", fillcolor="#f1ba92"] ;
365 -> 366 ;
367 [label="squared_error = -0.0\nsamples = 4\nvalue = 11.3", fillcolor="#f1ba92"] ;
365 -> 367 ;
368 [label="squared_error = -0.0\nsamples = 2\nvalue = 11.2", fillcolor="#f1bc95"] ;
364 -> 368 ;
369 [label="residual sugar <= 0.95\nsquared_error = 0.0\nsamples = 3\nvalue = 11.4", fillcolor="#f0b88f"] ;
363 -> 369 ;
370 [label="squared_error = 0.0\nsamples = 1\nvalue = 11.4", fillcolor="#f0b88f"] ;
369 -> 370 ;
371 [label="squared_error = 0.0\nsamples = 2\nvalue = 11.4", fillcolor="#f0b88f"] ;
369 -> 371 ;
372 [label="free sulfur dioxide <= 19.0\nsquared_error = 0.0\nsamples = 2\nvalue = 10.95", fillcolor="#f2c19e"] ;
362 -> 372 ;
373 [label="squared_error = 0.0\nsamples = 1\nvalue = 11.0", fillcolor="#f2c09c"] ;
372 -> 373 ;
374 [label="squared_error = 0.0\nsamples = 1\nvalue = 10.9", fillcolor="#f2c29f"] ;
372 -> 374 ;
375 [label="quality <= 6.5\nsquared_error = 0.06\nsamples = 2\nvalue = 11.95", fillcolor="#eeac7d"] ;
361 -> 375 ;
376 [label="squared_error = 0.0\nsamples = 1\nvalue = 12.2", fillcolor="#eda774"] ;
375 -> 376 ;
377 [label="squared_error = 0.0\nsamples = 1\nvalue = 11.7", fillcolor="#efb185"] ;
375 -> 377 ;
378 [label="volatile acidity <= 0.16\nsquared_error = 0.04\nsamples = 45\nvalue = 11.12", fillcolor="#f1be98"] ;
360 -> 378 ;
379 [label="chlorides <= 0.04\nsquared_error = 0.01\nsamples = 9\nvalue = 11.26", fillcolor="#f1bb93"] ;
378 -> 379 ;
380 [label="residual sugar <= 1.3\nsquared_error = 0.01\nsamples = 3\nvalue = 11.4", fillcolor="#f0b88f"] ;
379 -> 380 ;
381 [label="squared_error = 0.0\nsamples = 2\nvalue = 11.5", fillcolor="#f0b68c"] ;
380 -> 381 ;
382 [label="squared_error = -0.0\nsamples = 1\nvalue = 11.3", fillcolor="#f1ba92"] ;
380 -> 382 ;
383 [label="pH <= 3.59\nsquared_error = 0.0\nsamples = 6\nvalue = 11.2", fillcolor="#f1bc95"] ;
379 -> 383 ;
384 [label="density <= 0.99\nsquared_error = 0.0\nsamples = 5\nvalue = 11.17", fillcolor="#f1bc96"] ;
383 -> 384 ;
385 [label="squared_error = 0.0\nsamples = 3\nvalue = 11.2", fillcolor="#f1bc95"] ;
384 -> 385 ;
386 [label="free sulfur dioxide <= 53.0\nsquared_error = 0.0\nsamples = 2\nvalue = 11.1", fillcolor="#f2be99"] ;
384 -> 386 ;
387 [label="squared_error = 0.0\nsamples = 1\nvalue = 11.1", fillcolor="#f2be99"] ;
386 -> 387 ;
388 [label="squared_error = 0.0\nsamples = 1\nvalue = 11.1", fillcolor="#f2be99"] ;
386 -> 388 ;
389 [label="squared_error = 0.0\nsamples = 1\nvalue = 11.3", fillcolor="#f1ba92"] ;
383 -> 389 ;
390 [label="density <= 0.99\nsquared_error = 0.04\nsamples = 36\nvalue = 11.08", fillcolor="#f2be99"] ;
378 -> 390 ;
391 [label="sulphates <= 0.53\nsquared_error = 0.03\nsamples = 31\nvalue = 11.12", fillcolor="#f1bd98"] ;
390 -> 391 ;
392 [label="residual sugar <= 1.05\nsquared_error = 0.03\nsamples = 22\nvalue = 11.08", fillcolor="#f2be99"] ;
391 -> 392 ;
393 [label="total sulfur dioxide <= 97.0\nsquared_error = 0.04\nsamples = 4\nvalue = 11.34", fillcolor="#f1b991"] ;
392 -> 393 ;
394 [label="squared_error = 0.0\nsamples = 1\nvalue = 11.0", fillcolor="#f2c09c"] ;
393 -> 394 ;
395 [label="pH <= 3.27\nsquared_error = 0.0\nsamples = 3\nvalue = 11.45", fillcolor="#f0b78d"] ;
393 -> 395 ;
396 [label="squared_error = 0.0\nsamples = 1\nvalue = 11.4", fillcolor="#f0b88f"] ;
395 -> 396 ;
397 [label="fixed acidity <= 6.2\nsquared_error = 0.0\nsamples = 2\nvalue = 11.48", fillcolor="#f0b68c"] ;
395 -> 397 ;
398 [label="squared_error = 0.0\nsamples = 1\nvalue = 11.45", fillcolor="#f0b78d"] ;
397 -> 398 ;
399 [label="squared_error = -0.0\nsamples = 1\nvalue = 11.5", fillcolor="#f0b68c"] ;
397 -> 399 ;
400 [label="total sulfur dioxide <= 72.0\nsquared_error = 0.01\nsamples = 18\nvalue = 11.04", fillcolor="#f2bf9b"] ;
392 -> 400 ;
401 [label="squared_error = -0.0\nsamples = 2\nvalue = 11.2", fillcolor="#f1bc95"] ;
400 -> 401 ;
402 [label="free sulfur dioxide <= 23.0\nsquared_error = 0.01\nsamples = 16\nvalue = 10.99", fillcolor="#f2c09c"] ;
400 -> 402 ;
403 [label="total sulfur dioxide <= 110.0\nsquared_error = 0.0\nsamples = 4\nvalue = 10.9", fillcolor="#f2c29f"] ;
402 -> 403 ;
404 [label="total sulfur dioxide <= 85.5\nsquared_error = 0.0\nsamples = 3\nvalue = 10.92", fillcolor="#f2c29f"] ;
403 -> 404 ;
405 [label="total sulfur dioxide <= 79.0\nsquared_error = 0.0\nsamples = 2\nvalue = 10.9", fillcolor="#f2c29f"] ;
404 -> 405 ;
406 [label="squared_error = 0.0\nsamples = 1\nvalue = 10.9", fillcolor="#f2c29f"] ;
405 -> 406 ;
407 [label="squared_error = 0.0\nsamples = 1\nvalue = 10.9", fillcolor="#f2c29f"] ;
405 -> 407 ;
408 [label="squared_error = 0.0\nsamples = 1\nvalue = 11.0", fillcolor="#f2c09c"] ;
404 -> 408 ;
409 [label="squared_error = 0.0\nsamples = 1\nvalue = 10.8", fillcolor="#f3c4a3"] ;
403 -> 409 ;
410 [label="volatile acidity <= 0.28\nsquared_error = 0.0\nsamples = 12\nvalue = 11.03", fillcolor="#f2bf9b"] ;
402 -> 410 ;
411 [label="citric acid <= 0.38\nsquared_error = 0.0\nsamples = 10\nvalue = 11.01", fillcolor="#f2c09c"] ;
410 -> 411 ;
412 [label="squared_error = 0.0\nsamples = 9\nvalue = 11.0", fillcolor="#f2c09c"] ;
411 -> 412 ;
413 [label="squared_error = 0.0\nsamples = 1\nvalue = 11.1", fillcolor="#f2be99"] ;
411 -> 413 ;
414 [label="free sulfur dioxide <= 37.0\nsquared_error = 0.0\nsamples = 2\nvalue = 11.15", fillcolor="#f1bd97"] ;
410 -> 414 ;
415 [label="squared_error = 0.0\nsamples = 1\nvalue = 11.1", fillcolor="#f2be99"] ;
414 -> 415 ;
416 [label="squared_error = 0.0\nsamples = 1\nvalue = 11.2", fillcolor="#f1bc95"] ;
414 -> 416 ;
417 [label="residual sugar <= 1.15\nsquared_error = 0.01\nsamples = 9\nvalue = 11.27", fillcolor="#f1ba93"] ;
391 -> 417 ;
418 [label="squared_error = 0.0\nsamples = 1\nvalue = 11.0", fillcolor="#f2c09c"] ;
417 -> 418 ;
419 [label="free sulfur dioxide <= 35.5\nsquared_error = 0.01\nsamples = 8\nvalue = 11.3", fillcolor="#f1ba92"] ;
417 -> 419 ;
420 [label="chlorides <= 0.04\nsquared_error = 0.0\nsamples = 6\nvalue = 11.27", fillcolor="#f1ba93"] ;
419 -> 420 ;
421 [label="residual sugar <= 1.25\nsquared_error = 0.0\nsamples = 4\nvalue = 11.3", fillcolor="#f1ba92"] ;
420 -> 421 ;
422 [label="squared_error = 0.0\nsamples = 1\nvalue = 11.3", fillcolor="#f1ba92"] ;
421 -> 422 ;
423 [label="squared_error = -0.0\nsamples = 3\nvalue = 11.3", fillcolor="#f1ba92"] ;
421 -> 423 ;
424 [label="squared_error = -0.0\nsamples = 2\nvalue = 11.2", fillcolor="#f1bc95"] ;
420 -> 424 ;
425 [label="squared_error = -0.0\nsamples = 2\nvalue = 11.4", fillcolor="#f0b88f"] ;
419 -> 425 ;
426 [label="total sulfur dioxide <= 107.5\nsquared_error = 0.04\nsamples = 5\nvalue = 10.86", fillcolor="#f3c3a1"] ;
390 -> 426 ;
427 [label="squared_error = 0.0\nsamples = 2\nvalue = 11.1", fillcolor="#f2be99"] ;
426 -> 427 ;
428 [label="total sulfur dioxide <= 142.5\nsquared_error = 0.01\nsamples = 3\nvalue = 10.72", fillcolor="#f3c6a5"] ;
426 -> 428 ;
429 [label="squared_error = -0.0\nsamples = 2\nvalue = 10.8", fillcolor="#f3c4a3"] ;
428 -> 429 ;
430 [label="squared_error = 0.0\nsamples = 1\nvalue = 10.6", fillcolor="#f4c8a9"] ;
428 -> 430 ;
431 [label="sulphates <= 0.53\nsquared_error = 0.11\nsamples = 3\nvalue = 11.73", fillcolor="#efb184"] ;
359 -> 431 ;
432 [label="squared_error = -0.0\nsamples = 2\nvalue = 12.2", fillcolor="#eda774"] ;
431 -> 432 ;
433 [label="squared_error = 0.0\nsamples = 1\nvalue = 11.5", fillcolor="#f0b68c"] ;
431 -> 433 ;
434 [label="density <= 0.99\nsquared_error = 0.25\nsamples = 72\nvalue = 11.67", fillcolor="#efb286"] ;
358 -> 434 ;
435 [label="volatile acidity <= 0.2\nsquared_error = 0.24\nsamples = 36\nvalue = 11.9", fillcolor="#eead7e"] ;
434 -> 435 ;
436 [label="total sulfur dioxide <= 142.5\nsquared_error = 0.1\nsamples = 6\nvalue = 11.27", fillcolor="#f1ba93"] ;
435 -> 436 ;
437 [label="fixed acidity <= 5.55\nsquared_error = 0.03\nsamples = 5\nvalue = 11.12", fillcolor="#f1bd98"] ;
436 -> 437 ;
438 [label="squared_error = 0.0\nsamples = 1\nvalue = 10.8", fillcolor="#f3c4a3"] ;
437 -> 438 ;
439 [label="citric acid <= 0.35\nsquared_error = 0.01\nsamples = 4\nvalue = 11.18", fillcolor="#f1bc96"] ;
437 -> 439 ;
440 [label="free sulfur dioxide <= 28.0\nsquared_error = 0.0\nsamples = 3\nvalue = 11.13", fillcolor="#f1bd98"] ;
439 -> 440 ;
441 [label="free sulfur dioxide <= 20.0\nsquared_error = 0.0\nsamples = 2\nvalue = 11.08", fillcolor="#f2be99"] ;
440 -> 441 ;
442 [label="squared_error = 0.0\nsamples = 1\nvalue = 11.05", fillcolor="#f2bf9a"] ;
441 -> 442 ;
443 [label="squared_error = 0.0\nsamples = 1\nvalue = 11.1", fillcolor="#f2be99"] ;
441 -> 443 ;
444 [label="squared_error = 0.0\nsamples = 1\nvalue = 11.2", fillcolor="#f1bc95"] ;
440 -> 444 ;
445 [label="squared_error = -0.0\nsamples = 1\nvalue = 11.4", fillcolor="#f0b88f"] ;
439 -> 445 ;
446 [label="squared_error = -0.0\nsamples = 1\nvalue = 11.8", fillcolor="#efaf82"] ;
436 -> 446 ;
447 [label="sulphates <= 0.53\nsquared_error = 0.17\nsamples = 30\nvalue = 12.02", fillcolor="#eeab7a"] ;
435 -> 447 ;
448 [label="sulphates <= 0.49\nsquared_error = 0.12\nsamples = 19\nvalue = 11.83", fillcolor="#eeaf81"] ;
447 -> 448 ;
449 [label="residual sugar <= 3.7\nsquared_error = 0.07\nsamples = 13\nvalue = 11.98", fillcolor="#eeab7c"] ;
448 -> 449 ;
450 [label="chlorides <= 0.04\nsquared_error = 0.04\nsamples = 12\nvalue = 11.94", fillcolor="#eeac7d"] ;
449 -> 450 ;
451 [label="sulphates <= 0.47\nsquared_error = 0.02\nsamples = 10\nvalue = 11.99", fillcolor="#eeab7b"] ;
450 -> 451 ;
452 [label="free sulfur dioxide <= 11.5\nsquared_error = 0.01\nsamples = 9\nvalue = 11.96", fillcolor="#eeac7c"] ;
451 -> 452 ;
453 [label="squared_error = 0.0\nsamples = 1\nvalue = 12.2", fillcolor="#eda774"] ;
452 -> 453 ;
454 [label="residual sugar <= 2.55\nsquared_error = 0.01\nsamples = 8\nvalue = 11.94", fillcolor="#eeac7d"] ;
452 -> 454 ;
455 [label="quality <= 6.5\nsquared_error = 0.0\nsamples = 3\nvalue = 11.84", fillcolor="#eeae80"] ;
454 -> 455 ;
456 [label="squared_error = -0.0\nsamples = 2\nvalue = 11.8", fillcolor="#efaf82"] ;
455 -> 456 ;
457 [label="squared_error = 0.0\nsamples = 1\nvalue = 11.9", fillcolor="#eead7e"] ;
455 -> 457 ;
458 [label="squared_error = -0.0\nsamples = 5\nvalue = 12.0", fillcolor="#eeab7b"] ;
454 -> 458 ;
459 [label="squared_error = 0.0\nsamples = 1\nvalue = 12.2", fillcolor="#eda774"] ;
451 -> 459 ;
460 [label="residual sugar <= 2.55\nsquared_error = 0.12\nsamples = 2\nvalue = 11.55", fillcolor="#f0b48a"] ;
450 -> 460 ;
461 [label="squared_error = 0.0\nsamples = 1\nvalue = 11.9", fillcolor="#eead7e"] ;
460 -> 461 ;
462 [label="squared_error = -0.0\nsamples = 1\nvalue = 11.2", fillcolor="#f1bc95"] ;
460 -> 462 ;
463 [label="squared_error = 0.0\nsamples = 1\nvalue = 12.7", fillcolor="#eb9c64"] ;
449 -> 463 ;
464 [label="total sulfur dioxide <= 111.0\nsquared_error = 0.06\nsamples = 6\nvalue = 11.45", fillcolor="#f0b78d"] ;
448 -> 464 ;
465 [label="residual sugar <= 1.85\nsquared_error = 0.01\nsamples = 4\nvalue = 11.32", fillcolor="#f1b992"] ;
464 -> 465 ;
466 [label="squared_error = 0.0\nsamples = 2\nvalue = 11.4", fillcolor="#f0b88f"] ;
465 -> 466 ;
467 [label="fixed acidity <= 6.05\nsquared_error = 0.0\nsamples = 2\nvalue = 11.23", fillcolor="#f1bb94"] ;
465 -> 467 ;
468 [label="squared_error = 0.0\nsamples = 1\nvalue = 11.2", fillcolor="#f1bc95"] ;
467 -> 468 ;
469 [label="squared_error = -0.0\nsamples = 1\nvalue = 11.3", fillcolor="#f1ba92"] ;
467 -> 469 ;
470 [label="sulphates <= 0.52\nsquared_error = 0.0\nsamples = 2\nvalue = 11.85", fillcolor="#eeae80"] ;
464 -> 470 ;
471 [label="squared_error = 0.0\nsamples = 1\nvalue = 11.9", fillcolor="#eead7e"] ;
470 -> 471 ;
472 [label="squared_error = -0.0\nsamples = 1\nvalue = 11.8", fillcolor="#efaf82"] ;
470 -> 472 ;
473 [label="total sulfur dioxide <= 94.5\nsquared_error = 0.12\nsamples = 11\nvalue = 12.3", fillcolor="#eca571"] ;
447 -> 473 ;
474 [label="free sulfur dioxide <= 22.5\nsquared_error = 0.05\nsamples = 5\nvalue = 12.01", fillcolor="#eeab7b"] ;
473 -> 474 ;
475 [label="squared_error = 0.0\nsamples = 2\nvalue = 12.4", fillcolor="#eca36e"] ;
474 -> 475 ;
476 [label="residual sugar <= 2.75\nsquared_error = 0.01\nsamples = 3\nvalue = 11.9", fillcolor="#eead7e"] ;
474 -> 476 ;
477 [label="citric acid <= 0.31\nsquared_error = 0.0\nsamples = 2\nvalue = 11.86", fillcolor="#eeae80"] ;
476 -> 477 ;
478 [label="squared_error = 0.0\nsamples = 1\nvalue = 11.8", fillcolor="#efaf82"] ;
477 -> 478 ;
479 [label="squared_error = 0.0\nsamples = 1\nvalue = 11.9", fillcolor="#eead7e"] ;
477 -> 479 ;
480 [label="squared_error = 0.0\nsamples = 1\nvalue = 12.0", fillcolor="#eeab7b"] ;
476 -> 480 ;
481 [label="sulphates <= 0.64\nsquared_error = 0.04\nsamples = 6\nvalue = 12.56", fillcolor="#eb9f69"] ;
473 -> 481 ;
482 [label="free sulfur dioxide <= 34.0\nsquared_error = 0.01\nsamples = 5\nvalue = 12.65", fillcolor="#eb9d66"] ;
481 -> 482 ;
483 [label="residual sugar <= 2.35\nsquared_error = 0.0\nsamples = 3\nvalue = 12.7", fillcolor="#eb9c64"] ;
482 -> 483 ;
484 [label="squared_error = 0.0\nsamples = 1\nvalue = 12.7", fillcolor="#eb9c64"] ;
483 -> 484 ;
485 [label="pH <= 3.24\nsquared_error = 0.0\nsamples = 2\nvalue = 12.7", fillcolor="#eb9c64"] ;
483 -> 485 ;
486 [label="squared_error = 0.0\nsamples = 1\nvalue = 12.7", fillcolor="#eb9c64"] ;
485 -> 486 ;
487 [label="squared_error = 0.0\nsamples = 1\nvalue = 12.7", fillcolor="#eb9c64"] ;
485 -> 487 ;
488 [label="residual sugar <= 2.75\nsquared_error = 0.0\nsamples = 2\nvalue = 12.57", fillcolor="#eb9f68"] ;
482 -> 488 ;
489 [label="squared_error = 0.0\nsamples = 1\nvalue = 12.5", fillcolor="#eca06a"] ;
488 -> 489 ;
490 [label="squared_error = -0.0\nsamples = 1\nvalue = 12.6", fillcolor="#eb9e67"] ;
488 -> 490 ;
491 [label="squared_error = -0.0\nsamples = 1\nvalue = 12.2", fillcolor="#eda774"] ;
481 -> 491 ;
492 [label="citric acid <= 0.39\nsquared_error = 0.17\nsamples = 36\nvalue = 11.46", fillcolor="#f0b68d"] ;
434 -> 492 ;
493 [label="pH <= 3.13\nsquared_error = 0.13\nsamples = 32\nvalue = 11.39", fillcolor="#f0b88f"] ;
492 -> 493 ;
494 [label="pH <= 3.05\nsquared_error = 0.14\nsamples = 9\nvalue = 11.15", fillcolor="#f1bd97"] ;
493 -> 494 ;
495 [label="total sulfur dioxide <= 112.5\nsquared_error = 0.0\nsamples = 2\nvalue = 11.73", fillcolor="#efb184"] ;
494 -> 495 ;
496 [label="squared_error = 0.0\nsamples = 1\nvalue = 11.7", fillcolor="#efb185"] ;
495 -> 496 ;
497 [label="squared_error = -0.0\nsamples = 1\nvalue = 11.8", fillcolor="#efaf82"] ;
495 -> 497 ;
498 [label="total sulfur dioxide <= 58.0\nsquared_error = 0.09\nsamples = 7\nvalue = 11.04", fillcolor="#f2bf9b"] ;
494 -> 498 ;
499 [label="squared_error = 0.0\nsamples = 1\nvalue = 10.1", fillcolor="#f6d3ba"] ;
498 -> 499 ;
500 [label="sulphates <= 0.51\nsquared_error = 0.04\nsamples = 6\nvalue = 11.1", fillcolor="#f2be99"] ;
498 -> 500 ;
501 [label="citric acid <= 0.33\nsquared_error = 0.01\nsamples = 2\nvalue = 11.27", fillcolor="#f1ba93"] ;
500 -> 501 ;
502 [label="squared_error = 0.0\nsamples = 1\nvalue = 11.4", fillcolor="#f0b88f"] ;
501 -> 502 ;
503 [label="squared_error = 0.0\nsamples = 1\nvalue = 11.2", fillcolor="#f1bc95"] ;
501 -> 503 ;
504 [label="fixed acidity <= 6.95\nsquared_error = 0.02\nsamples = 4\nvalue = 10.99", fillcolor="#f2c09c"] ;
500 -> 504 ;
505 [label="residual sugar <= 2.05\nsquared_error = 0.01\nsamples = 3\nvalue = 10.93", fillcolor="#f2c29e"] ;
504 -> 505 ;
506 [label="squared_error = 0.0\nsamples = 1\nvalue = 11.1", fillcolor="#f2be99"] ;
505 -> 506 ;
507 [label="residual sugar <= 2.7\nsquared_error = 0.0\nsamples = 2\nvalue = 10.86", fillcolor="#f3c3a1"] ;
505 -> 507 ;
508 [label="squared_error = 0.0\nsamples = 1\nvalue = 10.8", fillcolor="#f3c4a3"] ;
507 -> 508 ;
509 [label="squared_error = 0.0\nsamples = 1\nvalue = 10.9", fillcolor="#f2c29f"] ;
507 -> 509 ;
510 [label="squared_error = -0.0\nsamples = 1\nvalue = 11.2", fillcolor="#f1bc95"] ;
504 -> 510 ;
511 [label="fixed acidity <= 6.45\nsquared_error = 0.08\nsamples = 23\nvalue = 11.52", fillcolor="#f0b58b"] ;
493 -> 511 ;
512 [label="citric acid <= 0.28\nsquared_error = 0.04\nsamples = 12\nvalue = 11.39", fillcolor="#f0b88f"] ;
511 -> 512 ;
513 [label="pH <= 3.33\nsquared_error = 0.02\nsamples = 5\nvalue = 11.52", fillcolor="#f0b58b"] ;
512 -> 513 ;
514 [label="residual sugar <= 1.7\nsquared_error = 0.0\nsamples = 3\nvalue = 11.41", fillcolor="#f0b78e"] ;
513 -> 514 ;
515 [label="squared_error = 0.0\nsamples = 2\nvalue = 11.4", fillcolor="#f0b88f"] ;
514 -> 515 ;
516 [label="squared_error = 0.0\nsamples = 1\nvalue = 11.5", fillcolor="#f0b68c"] ;
514 -> 516 ;
517 [label="volatile acidity <= 0.37\nsquared_error = 0.01\nsamples = 2\nvalue = 11.66", fillcolor="#efb286"] ;
513 -> 517 ;
518 [label="squared_error = 0.0\nsamples = 1\nvalue = 11.9", fillcolor="#eead7e"] ;
517 -> 518 ;
519 [label="squared_error = 0.0\nsamples = 1\nvalue = 11.6", fillcolor="#efb388"] ;
517 -> 519 ;
520 [label="fixed acidity <= 6.35\nsquared_error = 0.03\nsamples = 7\nvalue = 11.24", fillcolor="#f1bb94"] ;
512 -> 520 ;
521 [label="total sulfur dioxide <= 81.0\nsquared_error = 0.01\nsamples = 6\nvalue = 11.18", fillcolor="#f1bc96"] ;
520 -> 521 ;
522 [label="squared_error = 0.0\nsamples = 1\nvalue = 11.0", fillcolor="#f2c09c"] ;
521 -> 522 ;
523 [label="volatile acidity <= 0.33\nsquared_error = 0.0\nsamples = 5\nvalue = 11.23", fillcolor="#f1bb94"] ;
521 -> 523 ;
524 [label="squared_error = -0.0\nsamples = 4\nvalue = 11.2", fillcolor="#f1bc95"] ;
523 -> 524 ;
525 [label="squared_error = -0.0\nsamples = 1\nvalue = 11.3", fillcolor="#f1ba92"] ;
523 -> 525 ;
526 [label="squared_error = 0.0\nsamples = 1\nvalue = 11.5", fillcolor="#f0b68c"] ;
520 -> 526 ;
527 [label="residual sugar <= 1.8\nsquared_error = 0.06\nsamples = 11\nvalue = 11.71", fillcolor="#efb184"] ;
511 -> 527 ;
528 [label="residual sugar <= 1.53\nsquared_error = 0.01\nsamples = 4\nvalue = 11.5", fillcolor="#f0b68c"] ;
527 -> 528 ;
529 [label="squared_error = 0.0\nsamples = 1\nvalue = 11.4", fillcolor="#f0b88f"] ;
528 -> 529 ;
530 [label="volatile acidity <= 0.2\nsquared_error = 0.0\nsamples = 3\nvalue = 11.55", fillcolor="#f0b48a"] ;
528 -> 530 ;
531 [label="squared_error = 0.0\nsamples = 1\nvalue = 11.5", fillcolor="#f0b68c"] ;
530 -> 531 ;
532 [label="squared_error = -0.0\nsamples = 2\nvalue = 11.6", fillcolor="#efb388"] ;
530 -> 532 ;
533 [label="sulphates <= 0.44\nsquared_error = 0.05\nsamples = 7\nvalue = 11.86", fillcolor="#eeae80"] ;
527 -> 533 ;
534 [label="total sulfur dioxide <= 95.0\nsquared_error = 0.01\nsamples = 3\nvalue = 11.62", fillcolor="#efb387"] ;
533 -> 534 ;
535 [label="squared_error = 0.0\nsamples = 1\nvalue = 11.7", fillcolor="#efb185"] ;
534 -> 535 ;
536 [label="quality <= 6.0\nsquared_error = 0.0\nsamples = 2\nvalue = 11.55", fillcolor="#f0b48a"] ;
534 -> 536 ;
537 [label="squared_error = 0.0\nsamples = 1\nvalue = 11.5", fillcolor="#f0b68c"] ;
536 -> 537 ;
538 [label="squared_error = -0.0\nsamples = 1\nvalue = 11.6", fillcolor="#efb388"] ;
536 -> 538 ;
539 [label="citric acid <= 0.34\nsquared_error = 0.0\nsamples = 4\nvalue = 12.04", fillcolor="#edaa7a"] ;
533 -> 539 ;
540 [label="squared_error = 0.0\nsamples = 3\nvalue = 12.0", fillcolor="#eeab7b"] ;
539 -> 540 ;
541 [label="squared_error = -0.0\nsamples = 1\nvalue = 12.1", fillcolor="#eda978"] ;
539 -> 541 ;
542 [label="pH <= 3.29\nsquared_error = 0.05\nsamples = 4\nvalue = 12.2", fillcolor="#eda774"] ;
492 -> 542 ;
543 [label="squared_error = 0.0\nsamples = 1\nvalue = 11.8", fillcolor="#efaf82"] ;
542 -> 543 ;
544 [label="citric acid <= 0.44\nsquared_error = 0.01\nsamples = 3\nvalue = 12.3", fillcolor="#eca571"] ;
542 -> 544 ;
545 [label="squared_error = 0.0\nsamples = 1\nvalue = 12.4", fillcolor="#eca36e"] ;
544 -> 545 ;
546 [label="squared_error = -0.0\nsamples = 2\nvalue = 12.2", fillcolor="#eda774"] ;
544 -> 546 ;
547 [label="total sulfur dioxide <= 95.0\nsquared_error = 0.27\nsamples = 54\nvalue = 12.03", fillcolor="#eeaa7a"] ;
357 -> 547 ;
548 [label="residual sugar <= 1.4\nsquared_error = 0.11\nsamples = 16\nvalue = 11.53", fillcolor="#f0b58a"] ;
547 -> 548 ;
549 [label="pH <= 2.9\nsquared_error = 0.08\nsamples = 12\nvalue = 11.42", fillcolor="#f0b78e"] ;
548 -> 549 ;
550 [label="squared_error = 0.0\nsamples = 1\nvalue = 12.0", fillcolor="#eeab7b"] ;
549 -> 550 ;
551 [label="volatile acidity <= 0.2\nsquared_error = 0.04\nsamples = 11\nvalue = 11.35", fillcolor="#f0b990"] ;
549 -> 551 ;
552 [label="fixed acidity <= 8.05\nsquared_error = 0.01\nsamples = 4\nvalue = 11.12", fillcolor="#f1be98"] ;
551 -> 552 ;
553 [label="citric acid <= 0.29\nsquared_error = 0.0\nsamples = 2\nvalue = 11.2", fillcolor="#f1bc95"] ;
552 -> 553 ;
554 [label="squared_error = 0.0\nsamples = 1\nvalue = 11.2", fillcolor="#f1bc95"] ;
553 -> 554 ;
555 [label="squared_error = 0.0\nsamples = 1\nvalue = 11.2", fillcolor="#f1bc95"] ;
553 -> 555 ;
556 [label="volatile acidity <= 0.19\nsquared_error = 0.0\nsamples = 2\nvalue = 11.03", fillcolor="#f2bf9b"] ;
552 -> 556 ;
557 [label="squared_error = 0.0\nsamples = 1\nvalue = 11.0", fillcolor="#f2c09c"] ;
556 -> 557 ;
558 [label="squared_error = -0.0\nsamples = 1\nvalue = 11.1", fillcolor="#f2be99"] ;
556 -> 558 ;
559 [label="total sulfur dioxide <= 89.5\nsquared_error = 0.02\nsamples = 7\nvalue = 11.47", fillcolor="#f0b68d"] ;
551 -> 559 ;
560 [label="total sulfur dioxide <= 83.0\nsquared_error = 0.0\nsamples = 5\nvalue = 11.39", fillcolor="#f0b88f"] ;
559 -> 560 ;
561 [label="squared_error = -0.0\nsamples = 4\nvalue = 11.4", fillcolor="#f0b88f"] ;
560 -> 561 ;
562 [label="squared_error = 0.0\nsamples = 1\nvalue = 11.3", fillcolor="#f1ba92"] ;
560 -> 562 ;
563 [label="squared_error = -0.0\nsamples = 2\nvalue = 11.7", fillcolor="#efb185"] ;
559 -> 563 ;
564 [label="free sulfur dioxide <= 25.0\nsquared_error = 0.01\nsamples = 4\nvalue = 11.92", fillcolor="#eead7e"] ;
548 -> 564 ;
565 [label="squared_error = 0.0\nsamples = 2\nvalue = 12.0", fillcolor="#eeab7b"] ;
564 -> 565 ;
566 [label="residual sugar <= 2.15\nsquared_error = 0.0\nsamples = 2\nvalue = 11.83", fillcolor="#eeae80"] ;
564 -> 566 ;
567 [label="squared_error = 0.0\nsamples = 1\nvalue = 11.9", fillcolor="#eead7e"] ;
566 -> 567 ;
568 [label="squared_error = 0.0\nsamples = 1\nvalue = 11.8", fillcolor="#efaf82"] ;
566 -> 568 ;
569 [label="citric acid <= 0.32\nsquared_error = 0.19\nsamples = 38\nvalue = 12.23", fillcolor="#eda673"] ;
547 -> 569 ;
570 [label="chlorides <= 0.04\nsquared_error = 0.04\nsamples = 11\nvalue = 11.96", fillcolor="#eeac7c"] ;
569 -> 570 ;
571 [label="pH <= 2.92\nsquared_error = 0.02\nsamples = 10\nvalue = 11.99", fillcolor="#eeab7b"] ;
570 -> 571 ;
572 [label="squared_error = 0.0\nsamples = 1\nvalue = 11.47", fillcolor="#f0b68d"] ;
571 -> 572 ;
573 [label="residual sugar <= 1.85\nsquared_error = 0.01\nsamples = 9\nvalue = 12.02", fillcolor="#eeab7a"] ;
571 -> 573 ;
574 [label="chlorides <= 0.04\nsquared_error = 0.0\nsamples = 4\nvalue = 11.92", fillcolor="#eead7e"] ;
573 -> 574 ;
575 [label="squared_error = -0.0\nsamples = 3\nvalue = 11.9", fillcolor="#eead7e"] ;
574 -> 575 ;
576 [label="squared_error = -0.0\nsamples = 1\nvalue = 12.0", fillcolor="#eeab7b"] ;
574 -> 576 ;
577 [label="sulphates <= 0.71\nsquared_error = 0.0\nsamples = 5\nvalue = 12.1", fillcolor="#eda978"] ;
573 -> 577 ;
578 [label="density <= 0.99\nsquared_error = 0.0\nsamples = 4\nvalue = 12.08", fillcolor="#eda979"] ;
577 -> 578 ;
579 [label="squared_error = 0.0\nsamples = 2\nvalue = 12.1", fillcolor="#eda978"] ;
578 -> 579 ;
580 [label="squared_error = 0.0\nsamples = 2\nvalue = 12.0", fillcolor="#eeab7b"] ;
578 -> 580 ;
581 [label="squared_error = -0.0\nsamples = 1\nvalue = 12.2", fillcolor="#eda774"] ;
577 -> 581 ;
582 [label="squared_error = -0.0\nsamples = 1\nvalue = 11.3", fillcolor="#f1ba92"] ;
570 -> 582 ;
583 [label="residual sugar <= 2.95\nsquared_error = 0.2\nsamples = 27\nvalue = 12.37", fillcolor="#eca36f"] ;
569 -> 583 ;
584 [label="volatile acidity <= 0.2\nsquared_error = 0.11\nsamples = 25\nvalue = 12.48", fillcolor="#eca16b"] ;
583 -> 584 ;
585 [label="density <= 0.99\nsquared_error = 0.11\nsamples = 4\nvalue = 12.0", fillcolor="#eeab7b"] ;
584 -> 585 ;
586 [label="squared_error = 0.0\nsamples = 1\nvalue = 11.4", fillcolor="#f0b88f"] ;
585 -> 586 ;
587 [label="volatile acidity <= 0.16\nsquared_error = 0.03\nsamples = 3\nvalue = 12.15", fillcolor="#eda876"] ;
585 -> 587 ;
588 [label="squared_error = 0.0\nsamples = 1\nvalue = 12.3", fillcolor="#eca571"] ;
587 -> 588 ;
589 [label="density <= 0.99\nsquared_error = 0.01\nsamples = 2\nvalue = 12.0", fillcolor="#eeab7b"] ;
587 -> 589 ;
590 [label="squared_error = 0.0\nsamples = 1\nvalue = 11.9", fillcolor="#eead7e"] ;
589 -> 590 ;
591 [label="squared_error = -0.0\nsamples = 1\nvalue = 12.1", fillcolor="#eda978"] ;
589 -> 591 ;
592 [label="total sulfur dioxide <= 158.5\nsquared_error = 0.07\nsamples = 21\nvalue = 12.55", fillcolor="#eb9f69"] ;
584 -> 592 ;
593 [label="free sulfur dioxide <= 7.0\nsquared_error = 0.05\nsamples = 17\nvalue = 12.62", fillcolor="#eb9e66"] ;
592 -> 593 ;
594 [label="squared_error = 0.0\nsamples = 1\nvalue = 12.1", fillcolor="#eda978"] ;
593 -> 594 ;
595 [label="total sulfur dioxide <= 105.0\nsquared_error = 0.03\nsamples = 16\nvalue = 12.66", fillcolor="#eb9d65"] ;
593 -> 595 ;
596 [label="pH <= 3.23\nsquared_error = 0.0\nsamples = 5\nvalue = 12.4", fillcolor="#eca36e"] ;
595 -> 596 ;
597 [label="fixed acidity <= 8.05\nsquared_error = 0.0\nsamples = 4\nvalue = 12.42", fillcolor="#eca26d"] ;
596 -> 597 ;
598 [label="squared_error = 0.0\nsamples = 1\nvalue = 12.5", fillcolor="#eca06a"] ;
597 -> 598 ;
599 [label="squared_error = 0.0\nsamples = 3\nvalue = 12.4", fillcolor="#eca36e"] ;
597 -> 599 ;
600 [label="squared_error = 0.0\nsamples = 1\nvalue = 12.3", fillcolor="#eca571"] ;
596 -> 600 ;
601 [label="chlorides <= 0.03\nsquared_error = 0.02\nsamples = 11\nvalue = 12.73", fillcolor="#eb9c63"] ;
595 -> 601 ;
602 [label="squared_error = 0.0\nsamples = 1\nvalue = 12.5", fillcolor="#eca06a"] ;
601 -> 602 ;
603 [label="pH <= 3.25\nsquared_error = 0.01\nsamples = 10\nvalue = 12.77", fillcolor="#ea9b62"] ;
601 -> 603 ;
604 [label="density <= 0.99\nsquared_error = 0.0\nsamples = 4\nvalue = 12.84", fillcolor="#ea995f"] ;
603 -> 604 ;
605 [label="squared_error = 0.0\nsamples = 2\nvalue = 12.9", fillcolor="#ea985d"] ;
604 -> 605 ;
606 [label="squared_error = 0.0\nsamples = 2\nvalue = 12.8", fillcolor="#ea9a61"] ;
604 -> 606 ;
607 [label="total sulfur dioxide <= 109.0\nsquared_error = 0.01\nsamples = 6\nvalue = 12.71", fillcolor="#eb9c64"] ;
603 -> 607 ;
608 [label="squared_error = -0.0\nsamples = 1\nvalue = 12.8", fillcolor="#ea9a61"] ;
607 -> 608 ;
609 [label="sulphates <= 0.46\nsquared_error = 0.0\nsamples = 5\nvalue = 12.67", fillcolor="#eb9d65"] ;
607 -> 609 ;
610 [label="squared_error = 0.0\nsamples = 2\nvalue = 12.6", fillcolor="#eb9e67"] ;
609 -> 610 ;
611 [label="squared_error = 0.0\nsamples = 3\nvalue = 12.7", fillcolor="#eb9c64"] ;
609 -> 611 ;
612 [label="volatile acidity <= 0.22\nsquared_error = 0.03\nsamples = 4\nvalue = 12.22", fillcolor="#eda674"] ;
592 -> 612 ;
613 [label="squared_error = 0.0\nsamples = 1\nvalue = 12.6", fillcolor="#eb9e67"] ;
612 -> 613 ;
614 [label="free sulfur dioxide <= 38.5\nsquared_error = 0.0\nsamples = 3\nvalue = 12.14", fillcolor="#eda876"] ;
612 -> 614 ;
615 [label="squared_error = 0.0\nsamples = 2\nvalue = 12.1", fillcolor="#eda978"] ;
614 -> 615 ;
616 [label="squared_error = 0.0\nsamples = 1\nvalue = 12.2", fillcolor="#eda774"] ;
614 -> 616 ;
617 [label="squared_error = -0.0\nsamples = 2\nvalue = 11.4", fillcolor="#f0b88f"] ;
583 -> 617 ;
618 [label="residual sugar <= 1.35\nsquared_error = 0.28\nsamples = 161\nvalue = 11.01", fillcolor="#f2c09c"] ;
356 -> 618 ;
619 [label="fixed acidity <= 5.85\nsquared_error = 0.23\nsamples = 59\nvalue = 10.71", fillcolor="#f3c6a6"] ;
618 -> 619 ;
620 [label="residual sugar <= 0.85\nsquared_error = 0.21\nsamples = 15\nvalue = 10.25", fillcolor="#f5d0b5"] ;
619 -> 620 ;
621 [label="free sulfur dioxide <= 29.0\nsquared_error = 0.0\nsamples = 2\nvalue = 9.23", fillcolor="#fae5d6"] ;
620 -> 621 ;
622 [label="squared_error = 0.0\nsamples = 1\nvalue = 9.2", fillcolor="#fae6d7"] ;
621 -> 622 ;
623 [label="squared_error = 0.0\nsamples = 1\nvalue = 9.3", fillcolor="#f9e4d4"] ;
621 -> 623 ;
624 [label="pH <= 3.38\nsquared_error = 0.08\nsamples = 13\nvalue = 10.39", fillcolor="#f5cdb0"] ;
620 -> 624 ;
625 [label="volatile acidity <= 0.14\nsquared_error = 0.02\nsamples = 6\nvalue = 10.15", fillcolor="#f6d2b8"] ;
624 -> 625 ;
626 [label="squared_error = 0.0\nsamples = 1\nvalue = 9.8", fillcolor="#f7d9c4"] ;
625 -> 626 ;
627 [label="volatile acidity <= 0.25\nsquared_error = 0.01\nsamples = 5\nvalue = 10.19", fillcolor="#f6d1b7"] ;
625 -> 627 ;
628 [label="volatile acidity <= 0.19\nsquared_error = 0.01\nsamples = 3\nvalue = 10.27", fillcolor="#f5cfb4"] ;
627 -> 628 ;
629 [label="squared_error = -0.0\nsamples = 1\nvalue = 10.2", fillcolor="#f5d1b6"] ;
628 -> 629 ;
630 [label="total sulfur dioxide <= 130.5\nsquared_error = 0.0\nsamples = 2\nvalue = 10.33", fillcolor="#f5ceb2"] ;
628 -> 630 ;
631 [label="squared_error = 0.0\nsamples = 1\nvalue = 10.3", fillcolor="#f5cfb3"] ;
630 -> 631 ;
632 [label="squared_error = 0.0\nsamples = 1\nvalue = 10.4", fillcolor="#f5cdb0"] ;
630 -> 632 ;
633 [label="chlorides <= 0.05\nsquared_error = 0.0\nsamples = 2\nvalue = 10.07", fillcolor="#f6d3bb"] ;
627 -> 633 ;
634 [label="squared_error = 0.0\nsamples = 1\nvalue = 10.0", fillcolor="#f6d5bd"] ;
633 -> 634 ;
635 [label="squared_error = 0.0\nsamples = 1\nvalue = 10.1", fillcolor="#f6d3ba"] ;
633 -> 635 ;
636 [label="free sulfur dioxide <= 54.5\nsquared_error = 0.04\nsamples = 7\nvalue = 10.6", fillcolor="#f4c8a9"] ;
624 -> 636 ;
637 [label="fixed acidity <= 5.2\nsquared_error = 0.02\nsamples = 5\nvalue = 10.53", fillcolor="#f4caac"] ;
636 -> 637 ;
638 [label="squared_error = 0.0\nsamples = 1\nvalue = 10.1", fillcolor="#f6d3ba"] ;
637 -> 638 ;
639 [label="sulphates <= 0.63\nsquared_error = 0.0\nsamples = 4\nvalue = 10.58", fillcolor="#f4c9aa"] ;
637 -> 639 ;
640 [label="squared_error = -0.0\nsamples = 3\nvalue = 10.6", fillcolor="#f4c8a9"] ;
639 -> 640 ;
641 [label="squared_error = -0.0\nsamples = 1\nvalue = 10.4", fillcolor="#f5cdb0"] ;
639 -> 641 ;
642 [label="free sulfur dioxide <= 70.5\nsquared_error = 0.0\nsamples = 2\nvalue = 10.95", fillcolor="#f2c19e"] ;
636 -> 642 ;
643 [label="squared_error = 0.0\nsamples = 1\nvalue = 11.0", fillcolor="#f2c09c"] ;
642 -> 643 ;
644 [label="squared_error = 0.0\nsamples = 1\nvalue = 10.9", fillcolor="#f2c29f"] ;
642 -> 644 ;
645 [label="citric acid <= 0.18\nsquared_error = 0.12\nsamples = 44\nvalue = 10.89", fillcolor="#f2c2a0"] ;
619 -> 645 ;
646 [label="squared_error = 0.0\nsamples = 1\nvalue = 10.0", fillcolor="#f6d5bd"] ;
645 -> 646 ;
647 [label="total sulfur dioxide <= 86.0\nsquared_error = 0.1\nsamples = 43\nvalue = 10.91", fillcolor="#f2c29f"] ;
645 -> 647 ;
648 [label="pH <= 3.21\nsquared_error = 0.05\nsamples = 9\nvalue = 10.6", fillcolor="#f4c8a9"] ;
647 -> 648 ;
649 [label="volatile acidity <= 0.24\nsquared_error = 0.0\nsamples = 8\nvalue = 10.54", fillcolor="#f4caab"] ;
648 -> 649 ;
650 [label="squared_error = 0.0\nsamples = 4\nvalue = 10.5", fillcolor="#f4caac"] ;
649 -> 650 ;
651 [label="total sulfur dioxide <= 58.0\nsquared_error = 0.01\nsamples = 4\nvalue = 10.6", fillcolor="#f4c8a9"] ;
649 -> 651 ;
652 [label="squared_error = 0.0\nsamples = 1\nvalue = 10.5", fillcolor="#f4caac"] ;
651 -> 652 ;
653 [label="residual sugar <= 1.05\nsquared_error = 0.0\nsamples = 3\nvalue = 10.63", fillcolor="#f4c8a8"] ;
651 -> 653 ;
654 [label="squared_error = 0.0\nsamples = 1\nvalue = 10.7", fillcolor="#f3c6a6"] ;
653 -> 654 ;
655 [label="squared_error = 0.0\nsamples = 2\nvalue = 10.6", fillcolor="#f4c8a9"] ;
653 -> 655 ;
656 [label="squared_error = 0.0\nsamples = 1\nvalue = 11.3", fillcolor="#f1ba92"] ;
648 -> 656 ;
657 [label="free sulfur dioxide <= 41.5\nsquared_error = 0.08\nsamples = 34\nvalue = 10.99", fillcolor="#f2c09c"] ;
647 -> 657 ;
658 [label="citric acid <= 0.28\nsquared_error = 0.06\nsamples = 26\nvalue = 11.07", fillcolor="#f2bf9a"] ;
657 -> 658 ;
659 [label="volatile acidity <= 0.18\nsquared_error = 0.07\nsamples = 5\nvalue = 10.78", fillcolor="#f3c5a3"] ;
658 -> 659 ;
660 [label="squared_error = 0.0\nsamples = 1\nvalue = 11.2", fillcolor="#f1bc95"] ;
659 -> 660 ;
661 [label="fixed acidity <= 6.5\nsquared_error = 0.01\nsamples = 4\nvalue = 10.63", fillcolor="#f4c8a8"] ;
659 -> 661 ;
662 [label="density <= 0.99\nsquared_error = 0.0\nsamples = 2\nvalue = 10.58", fillcolor="#f4c9aa"] ;
661 -> 662 ;
663 [label="squared_error = 0.0\nsamples = 1\nvalue = 10.5", fillcolor="#f4caac"] ;
662 -> 663 ;
664 [label="squared_error = 0.0\nsamples = 1\nvalue = 10.6", fillcolor="#f4c8a9"] ;
662 -> 664 ;
665 [label="citric acid <= 0.26\nsquared_error = 0.0\nsamples = 2\nvalue = 10.75", fillcolor="#f3c5a4"] ;
661 -> 665 ;
666 [label="squared_error = 0.0\nsamples = 1\nvalue = 10.8", fillcolor="#f3c4a3"] ;
665 -> 666 ;
667 [label="squared_error = 0.0\nsamples = 1\nvalue = 10.7", fillcolor="#f3c6a6"] ;
665 -> 667 ;
668 [label="density <= 0.99\nsquared_error = 0.03\nsamples = 21\nvalue = 11.15", fillcolor="#f1bd97"] ;
658 -> 668 ;
669 [label="chlorides <= 0.05\nsquared_error = 0.02\nsamples = 17\nvalue = 11.2", fillcolor="#f1bc95"] ;
668 -> 669 ;
670 [label="pH <= 3.33\nsquared_error = 0.01\nsamples = 11\nvalue = 11.27", fillcolor="#f1ba93"] ;
669 -> 670 ;
671 [label="volatile acidity <= 0.24\nsquared_error = 0.01\nsamples = 10\nvalue = 11.26", fillcolor="#f1bb94"] ;
670 -> 671 ;
672 [label="chlorides <= 0.04\nsquared_error = 0.01\nsamples = 6\nvalue = 11.2", fillcolor="#f1bc95"] ;
671 -> 672 ;
673 [label="squared_error = 0.0\nsamples = 2\nvalue = 11.1", fillcolor="#f2be99"] ;
672 -> 673 ;
674 [label="volatile acidity <= 0.22\nsquared_error = 0.0\nsamples = 4\nvalue = 11.25", fillcolor="#f1bb94"] ;
672 -> 674 ;
675 [label="squared_error = 0.0\nsamples = 2\nvalue = 11.3", fillcolor="#f1ba92"] ;
674 -> 675 ;
676 [label="squared_error = 0.0\nsamples = 2\nvalue = 11.2", fillcolor="#f1bc95"] ;
674 -> 676 ;
677 [label="quality <= 5.5\nsquared_error = 0.0\nsamples = 4\nvalue = 11.3", fillcolor="#f1ba92"] ;
671 -> 677 ;
678 [label="squared_error = 0.0\nsamples = 1\nvalue = 11.3", fillcolor="#f1ba92"] ;
677 -> 678 ;
679 [label="squared_error = -0.0\nsamples = 3\nvalue = 11.3", fillcolor="#f1ba92"] ;
677 -> 679 ;
680 [label="squared_error = -0.0\nsamples = 1\nvalue = 11.5", fillcolor="#f0b68c"] ;
670 -> 680 ;
681 [label="sulphates <= 0.45\nsquared_error = 0.01\nsamples = 6\nvalue = 11.09", fillcolor="#f2be99"] ;
669 -> 681 ;
682 [label="free sulfur dioxide <= 30.0\nsquared_error = 0.0\nsamples = 2\nvalue = 11.2", fillcolor="#f1bc95"] ;
681 -> 682 ;
683 [label="squared_error = 0.0\nsamples = 1\nvalue = 11.2", fillcolor="#f1bc95"] ;
682 -> 683 ;
684 [label="squared_error = 0.0\nsamples = 1\nvalue = 11.2", fillcolor="#f1bc95"] ;
682 -> 684 ;
685 [label="total sulfur dioxide <= 143.5\nsquared_error = 0.01\nsamples = 4\nvalue = 11.04", fillcolor="#f2bf9b"] ;
681 -> 685 ;
686 [label="density <= 0.99\nsquared_error = 0.0\nsamples = 3\nvalue = 11.02", fillcolor="#f2c09b"] ;
685 -> 686 ;
687 [label="squared_error = 0.0\nsamples = 1\nvalue = 11.1", fillcolor="#f2be99"] ;
686 -> 687 ;
688 [label="free sulfur dioxide <= 25.0\nsquared_error = 0.0\nsamples = 2\nvalue = 11.0", fillcolor="#f2c09c"] ;
686 -> 688 ;
689 [label="squared_error = 0.0\nsamples = 1\nvalue = 11.0", fillcolor="#f2c09c"] ;
688 -> 689 ;
690 [label="squared_error = 0.0\nsamples = 1\nvalue = 11.0", fillcolor="#f2c09c"] ;
688 -> 690 ;
691 [label="squared_error = -0.0\nsamples = 1\nvalue = 11.2", fillcolor="#f1bc95"] ;
685 -> 691 ;
692 [label="residual sugar <= 1.18\nsquared_error = 0.01\nsamples = 4\nvalue = 10.92", fillcolor="#f2c29f"] ;
668 -> 692 ;
693 [label="free sulfur dioxide <= 24.25\nsquared_error = 0.0\nsamples = 2\nvalue = 11.03", fillcolor="#f2bf9b"] ;
692 -> 693 ;
694 [label="squared_error = 0.0\nsamples = 1\nvalue = 11.0", fillcolor="#f2c09c"] ;
693 -> 694 ;
695 [label="squared_error = -0.0\nsamples = 1\nvalue = 11.1", fillcolor="#f2be99"] ;
693 -> 695 ;
696 [label="sulphates <= 0.58\nsquared_error = 0.0\nsamples = 2\nvalue = 10.8", fillcolor="#f3c4a3"] ;
692 -> 696 ;
697 [label="squared_error = 0.0\nsamples = 1\nvalue = 10.8", fillcolor="#f3c4a3"] ;
696 -> 697 ;
698 [label="squared_error = -0.0\nsamples = 1\nvalue = 10.8", fillcolor="#f3c4a3"] ;
696 -> 698 ;
699 [label="free sulfur dioxide <= 48.5\nsquared_error = 0.06\nsamples = 8\nvalue = 10.73", fillcolor="#f3c6a5"] ;
657 -> 699 ;
700 [label="density <= 0.99\nsquared_error = 0.02\nsamples = 5\nvalue = 10.6", fillcolor="#f4c8a9"] ;
699 -> 700 ;
701 [label="free sulfur dioxide <= 46.0\nsquared_error = 0.0\nsamples = 4\nvalue = 10.56", fillcolor="#f4c9aa"] ;
700 -> 701 ;
702 [label="quality <= 6.5\nsquared_error = 0.0\nsamples = 2\nvalue = 10.62", fillcolor="#f4c8a8"] ;
701 -> 702 ;
703 [label="squared_error = 0.0\nsamples = 1\nvalue = 10.6", fillcolor="#f4c8a9"] ;
702 -> 703 ;
704 [label="squared_error = -0.0\nsamples = 1\nvalue = 10.7", fillcolor="#f3c6a6"] ;
702 -> 704 ;
705 [label="squared_error = 0.0\nsamples = 2\nvalue = 10.5", fillcolor="#f4caac"] ;
701 -> 705 ;
706 [label="squared_error = -0.0\nsamples = 1\nvalue = 10.9", fillcolor="#f2c29f"] ;
700 -> 706 ;
707 [label="volatile acidity <= 0.19\nsquared_error = 0.01\nsamples = 3\nvalue = 11.1", fillcolor="#f2be99"] ;
699 -> 707 ;
708 [label="squared_error = 0.0\nsamples = 1\nvalue = 11.2", fillcolor="#f1bc95"] ;
707 -> 708 ;
709 [label="citric acid <= 0.33\nsquared_error = 0.0\nsamples = 2\nvalue = 11.05", fillcolor="#f2bf9a"] ;
707 -> 709 ;
710 [label="squared_error = 0.0\nsamples = 1\nvalue = 11.1", fillcolor="#f2be99"] ;
709 -> 710 ;
711 [label="squared_error = -0.0\nsamples = 1\nvalue = 11.0", fillcolor="#f2c09c"] ;
709 -> 711 ;
712 [label="sulphates <= 0.59\nsquared_error = 0.23\nsamples = 102\nvalue = 11.18", fillcolor="#f1bc96"] ;
618 -> 712 ;
713 [label="fixed acidity <= 6.75\nsquared_error = 0.17\nsamples = 80\nvalue = 11.07", fillcolor="#f2bf9a"] ;
712 -> 713 ;
714 [label="sulphates <= 0.41\nsquared_error = 0.2\nsamples = 44\nvalue = 10.91", fillcolor="#f2c29f"] ;
713 -> 714 ;
715 [label="density <= 0.99\nsquared_error = 0.15\nsamples = 6\nvalue = 10.32", fillcolor="#f5ceb2"] ;
714 -> 715 ;
716 [label="citric acid <= 0.13\nsquared_error = 0.09\nsamples = 3\nvalue = 10.8", fillcolor="#f3c4a3"] ;
715 -> 716 ;
717 [label="squared_error = 0.0\nsamples = 1\nvalue = 11.2", fillcolor="#f1bc95"] ;
716 -> 717 ;
718 [label="free sulfur dioxide <= 13.0\nsquared_error = 0.01\nsamples = 2\nvalue = 10.6", fillcolor="#f4c8a9"] ;
716 -> 718 ;
719 [label="squared_error = 0.0\nsamples = 1\nvalue = 10.5", fillcolor="#f4caac"] ;
718 -> 719 ;
720 [label="squared_error = 0.0\nsamples = 1\nvalue = 10.7", fillcolor="#f3c6a6"] ;
718 -> 720 ;
721 [label="free sulfur dioxide <= 58.5\nsquared_error = 0.01\nsamples = 3\nvalue = 10.08", fillcolor="#f6d3ba"] ;
715 -> 721 ;
722 [label="sulphates <= 0.37\nsquared_error = 0.0\nsamples = 2\nvalue = 10.17", fillcolor="#f6d2b8"] ;
721 -> 722 ;
723 [label="squared_error = 0.0\nsamples = 1\nvalue = 10.2", fillcolor="#f5d1b6"] ;
722 -> 723 ;
724 [label="squared_error = -0.0\nsamples = 1\nvalue = 10.1", fillcolor="#f6d3ba"] ;
722 -> 724 ;
725 [label="squared_error = -0.0\nsamples = 1\nvalue = 10.0", fillcolor="#f6d5bd"] ;
721 -> 725 ;
726 [label="density <= 0.99\nsquared_error = 0.15\nsamples = 38\nvalue = 11.01", fillcolor="#f2c09c"] ;
714 -> 726 ;
727 [label="sulphates <= 0.43\nsquared_error = 0.21\nsamples = 7\nvalue = 11.53", fillcolor="#f0b58b"] ;
726 -> 727 ;
728 [label="total sulfur dioxide <= 141.0\nsquared_error = 0.04\nsamples = 2\nvalue = 12.2", fillcolor="#eda774"] ;
727 -> 728 ;
729 [label="squared_error = 0.0\nsamples = 1\nvalue = 12.0", fillcolor="#eeab7b"] ;
728 -> 729 ;
730 [label="squared_error = 0.0\nsamples = 1\nvalue = 12.4", fillcolor="#eca36e"] ;
728 -> 730 ;
731 [label="sulphates <= 0.54\nsquared_error = 0.02\nsamples = 5\nvalue = 11.26", fillcolor="#f1bb93"] ;
727 -> 731 ;
732 [label="residual sugar <= 2.45\nsquared_error = 0.0\nsamples = 3\nvalue = 11.37", fillcolor="#f0b890"] ;
731 -> 732 ;
733 [label="squared_error = 0.0\nsamples = 2\nvalue = 11.4", fillcolor="#f0b88f"] ;
732 -> 733 ;
734 [label="squared_error = -0.0\nsamples = 1\nvalue = 11.3", fillcolor="#f1ba92"] ;
732 -> 734 ;
735 [label="pH <= 3.29\nsquared_error = 0.01\nsamples = 2\nvalue = 11.1", fillcolor="#f2be99"] ;
731 -> 735 ;
736 [label="squared_error = 0.0\nsamples = 1\nvalue = 11.2", fillcolor="#f1bc95"] ;
735 -> 736 ;
737 [label="squared_error = 0.0\nsamples = 1\nvalue = 11.0", fillcolor="#f2c09c"] ;
735 -> 737 ;
738 [label="citric acid <= 0.39\nsquared_error = 0.09\nsamples = 31\nvalue = 10.93", fillcolor="#f2c19e"] ;
726 -> 738 ;
739 [label="pH <= 3.03\nsquared_error = 0.07\nsamples = 26\nvalue = 10.86", fillcolor="#f3c3a1"] ;
738 -> 739 ;
740 [label="volatile acidity <= 0.18\nsquared_error = 0.01\nsamples = 3\nvalue = 10.5", fillcolor="#f4caac"] ;
739 -> 740 ;
741 [label="squared_error = 0.0\nsamples = 1\nvalue = 10.4", fillcolor="#f5cdb0"] ;
740 -> 741 ;
742 [label="density <= 0.99\nsquared_error = 0.0\nsamples = 2\nvalue = 10.55", fillcolor="#f4c9ab"] ;
740 -> 742 ;
743 [label="squared_error = 0.0\nsamples = 1\nvalue = 10.6", fillcolor="#f4c8a9"] ;
742 -> 743 ;
744 [label="squared_error = -0.0\nsamples = 1\nvalue = 10.5", fillcolor="#f4caac"] ;
742 -> 744 ;
745 [label="volatile acidity <= 0.23\nsquared_error = 0.07\nsamples = 23\nvalue = 10.89", fillcolor="#f2c2a0"] ;
739 -> 745 ;
746 [label="chlorides <= 0.04\nsquared_error = 0.03\nsamples = 8\nvalue = 11.03", fillcolor="#f2bf9b"] ;
745 -> 746 ;
747 [label="pH <= 3.35\nsquared_error = 0.02\nsamples = 2\nvalue = 11.3", fillcolor="#f1ba92"] ;
746 -> 747 ;
748 [label="squared_error = 0.0\nsamples = 1\nvalue = 11.5", fillcolor="#f0b68c"] ;
747 -> 748 ;
749 [label="squared_error = 0.0\nsamples = 1\nvalue = 11.2", fillcolor="#f1bc95"] ;
747 -> 749 ;
750 [label="citric acid <= 0.3\nsquared_error = 0.01\nsamples = 6\nvalue = 10.95", fillcolor="#f2c19e"] ;
746 -> 750 ;
751 [label="density <= 0.99\nsquared_error = 0.0\nsamples = 3\nvalue = 11.02", fillcolor="#f2c09b"] ;
750 -> 751 ;
752 [label="density <= 0.99\nsquared_error = 0.0\nsamples = 2\nvalue = 11.0", fillcolor="#f2c09c"] ;
751 -> 752 ;
753 [label="squared_error = 0.0\nsamples = 1\nvalue = 11.0", fillcolor="#f2c09c"] ;
752 -> 753 ;
754 [label="squared_error = 0.0\nsamples = 1\nvalue = 11.0", fillcolor="#f2c09c"] ;
752 -> 754 ;
755 [label="squared_error = 0.0\nsamples = 1\nvalue = 11.1", fillcolor="#f2be99"] ;
751 -> 755 ;
756 [label="total sulfur dioxide <= 80.0\nsquared_error = 0.0\nsamples = 3\nvalue = 10.88", fillcolor="#f3c3a0"] ;
750 -> 756 ;
757 [label="squared_error = 0.0\nsamples = 1\nvalue = 10.8", fillcolor="#f3c4a3"] ;
756 -> 757 ;
758 [label="squared_error = -0.0\nsamples = 2\nvalue = 10.9", fillcolor="#f2c29f"] ;
756 -> 758 ;
759 [label="pH <= 3.16\nsquared_error = 0.07\nsamples = 15\nvalue = 10.8", fillcolor="#f3c4a3"] ;
745 -> 759 ;
760 [label="citric acid <= 0.3\nsquared_error = 0.05\nsamples = 3\nvalue = 11.12", fillcolor="#f1bd98"] ;
759 -> 760 ;
761 [label="squared_error = 0.0\nsamples = 1\nvalue = 10.9", fillcolor="#f2c29f"] ;
760 -> 761 ;
762 [label="free sulfur dioxide <= 57.5\nsquared_error = 0.0\nsamples = 2\nvalue = 11.35", fillcolor="#f0b990"] ;
760 -> 762 ;
763 [label="squared_error = 0.0\nsamples = 1\nvalue = 11.4", fillcolor="#f0b88f"] ;
762 -> 763 ;
764 [label="squared_error = -0.0\nsamples = 1\nvalue = 11.3", fillcolor="#f1ba92"] ;
762 -> 764 ;
765 [label="citric acid <= 0.26\nsquared_error = 0.04\nsamples = 12\nvalue = 10.72", fillcolor="#f3c6a5"] ;
759 -> 765 ;
766 [label="total sulfur dioxide <= 104.5\nsquared_error = 0.02\nsamples = 7\nvalue = 10.85", fillcolor="#f3c3a1"] ;
765 -> 766 ;
767 [label="residual sugar <= 1.45\nsquared_error = 0.0\nsamples = 3\nvalue = 10.75", fillcolor="#f3c5a4"] ;
766 -> 767 ;
768 [label="squared_error = 0.0\nsamples = 1\nvalue = 10.8", fillcolor="#f3c4a3"] ;
767 -> 768 ;
769 [label="squared_error = 0.0\nsamples = 2\nvalue = 10.7", fillcolor="#f3c6a6"] ;
767 -> 769 ;
770 [label="sulphates <= 0.51\nsquared_error = 0.01\nsamples = 4\nvalue = 10.95", fillcolor="#f2c19e"] ;
766 -> 770 ;
771 [label="squared_error = 0.0\nsamples = 1\nvalue = 10.8", fillcolor="#f3c4a3"] ;
770 -> 771 ;
772 [label="squared_error = 0.0\nsamples = 3\nvalue = 11.0", fillcolor="#f2c09c"] ;
770 -> 772 ;
773 [label="residual sugar <= 1.95\nsquared_error = 0.04\nsamples = 5\nvalue = 10.6", fillcolor="#f4c8a9"] ;
765 -> 773 ;
774 [label="squared_error = 0.0\nsamples = 2\nvalue = 10.4", fillcolor="#f5cdb0"] ;
773 -> 774 ;
775 [label="citric acid <= 0.31\nsquared_error = 0.01\nsamples = 3\nvalue = 10.76", fillcolor="#f3c5a4"] ;
773 -> 775 ;
776 [label="squared_error = 0.0\nsamples = 1\nvalue = 10.7", fillcolor="#f3c6a6"] ;
775 -> 776 ;
777 [label="total sulfur dioxide <= 119.5\nsquared_error = 0.0\nsamples = 2\nvalue = 10.85", fillcolor="#f3c3a1"] ;
775 -> 777 ;
778 [label="squared_error = 0.0\nsamples = 1\nvalue = 10.9", fillcolor="#f2c29f"] ;
777 -> 778 ;
779 [label="squared_error = -0.0\nsamples = 1\nvalue = 10.8", fillcolor="#f3c4a3"] ;
777 -> 779 ;
780 [label="free sulfur dioxide <= 28.0\nsquared_error = 0.01\nsamples = 5\nvalue = 11.29", fillcolor="#f1ba93"] ;
738 -> 780 ;
781 [label="squared_error = 0.0\nsamples = 2\nvalue = 11.2", fillcolor="#f1bc95"] ;
780 -> 781 ;
782 [label="volatile acidity <= 0.2\nsquared_error = 0.0\nsamples = 3\nvalue = 11.43", fillcolor="#f0b78e"] ;
780 -> 782 ;
783 [label="squared_error = 0.0\nsamples = 2\nvalue = 11.4", fillcolor="#f0b88f"] ;
782 -> 783 ;
784 [label="squared_error = 0.0\nsamples = 1\nvalue = 11.5", fillcolor="#f0b68c"] ;
782 -> 784 ;
785 [label="citric acid <= 0.33\nsquared_error = 0.08\nsamples = 36\nvalue = 11.23", fillcolor="#f1bb95"] ;
713 -> 785 ;
786 [label="pH <= 2.99\nsquared_error = 0.05\nsamples = 24\nvalue = 11.32", fillcolor="#f1b991"] ;
785 -> 786 ;
787 [label="squared_error = 0.0\nsamples = 1\nvalue = 10.5", fillcolor="#f4caac"] ;
786 -> 787 ;
788 [label="sulphates <= 0.45\nsquared_error = 0.03\nsamples = 23\nvalue = 11.34", fillcolor="#f1b991"] ;
786 -> 788 ;
789 [label="citric acid <= 0.3\nsquared_error = 0.03\nsamples = 5\nvalue = 11.55", fillcolor="#f0b48a"] ;
788 -> 789 ;
790 [label="squared_error = 0.0\nsamples = 1\nvalue = 11.3", fillcolor="#f1ba92"] ;
789 -> 790 ;
791 [label="fixed acidity <= 8.2\nsquared_error = 0.01\nsamples = 4\nvalue = 11.63", fillcolor="#efb387"] ;
789 -> 791 ;
792 [label="density <= 0.99\nsquared_error = 0.01\nsamples = 3\nvalue = 11.66", fillcolor="#efb286"] ;
791 -> 792 ;
793 [label="squared_error = 0.0\nsamples = 1\nvalue = 11.5", fillcolor="#f0b68c"] ;
792 -> 793 ;
794 [label="squared_error = 0.0\nsamples = 2\nvalue = 11.7", fillcolor="#efb185"] ;
792 -> 794 ;
795 [label="squared_error = 0.0\nsamples = 1\nvalue = 11.5", fillcolor="#f0b68c"] ;
791 -> 795 ;
796 [label="total sulfur dioxide <= 115.0\nsquared_error = 0.02\nsamples = 18\nvalue = 11.29", fillcolor="#f1ba92"] ;
788 -> 796 ;
797 [label="volatile acidity <= 0.19\nsquared_error = 0.0\nsamples = 6\nvalue = 11.13", fillcolor="#f1bd98"] ;
796 -> 797 ;
798 [label="squared_error = 0.0\nsamples = 3\nvalue = 11.2", fillcolor="#f1bc95"] ;
797 -> 798 ;
799 [label="chlorides <= 0.04\nsquared_error = 0.0\nsamples = 3\nvalue = 11.09", fillcolor="#f2be99"] ;
797 -> 799 ;
800 [label="squared_error = 0.0\nsamples = 1\nvalue = 11.0", fillcolor="#f2c09c"] ;
799 -> 800 ;
801 [label="squared_error = 0.0\nsamples = 2\nvalue = 11.1", fillcolor="#f2be99"] ;
799 -> 801 ;
802 [label="density <= 0.99\nsquared_error = 0.01\nsamples = 12\nvalue = 11.38", fillcolor="#f0b890"] ;
796 -> 802 ;
803 [label="total sulfur dioxide <= 122.5\nsquared_error = 0.0\nsamples = 9\nvalue = 11.42", fillcolor="#f0b78e"] ;
802 -> 803 ;
804 [label="squared_error = 0.0\nsamples = 1\nvalue = 11.6", fillcolor="#efb388"] ;
803 -> 804 ;
805 [label="sulphates <= 0.56\nsquared_error = 0.0\nsamples = 8\nvalue = 11.39", fillcolor="#f0b88f"] ;
803 -> 805 ;
806 [label="squared_error = -0.0\nsamples = 7\nvalue = 11.4", fillcolor="#f0b88f"] ;
805 -> 806 ;
807 [label="squared_error = -0.0\nsamples = 1\nvalue = 11.3", fillcolor="#f1ba92"] ;
805 -> 807 ;
808 [label="citric acid <= 0.29\nsquared_error = 0.0\nsamples = 3\nvalue = 11.24", fillcolor="#f1bb94"] ;
802 -> 808 ;
809 [label="residual sugar <= 1.6\nsquared_error = 0.0\nsamples = 2\nvalue = 11.2", fillcolor="#f1bc95"] ;
808 -> 809 ;
810 [label="squared_error = 0.0\nsamples = 1\nvalue = 11.2", fillcolor="#f1bc95"] ;
809 -> 810 ;
811 [label="squared_error = 0.0\nsamples = 1\nvalue = 11.2", fillcolor="#f1bc95"] ;
809 -> 811 ;
812 [label="squared_error = -0.0\nsamples = 1\nvalue = 11.3", fillcolor="#f1ba92"] ;
808 -> 812 ;
813 [label="total sulfur dioxide <= 97.5\nsquared_error = 0.08\nsamples = 12\nvalue = 10.98", fillcolor="#f2c09d"] ;
785 -> 813 ;
814 [label="fixed acidity <= 7.85\nsquared_error = 0.0\nsamples = 3\nvalue = 11.42", fillcolor="#f0b78e"] ;
813 -> 814 ;
815 [label="squared_error = 0.0\nsamples = 1\nvalue = 11.5", fillcolor="#f0b68c"] ;
814 -> 815 ;
816 [label="squared_error = 0.0\nsamples = 2\nvalue = 11.4", fillcolor="#f0b88f"] ;
814 -> 816 ;
817 [label="volatile acidity <= 0.28\nsquared_error = 0.03\nsamples = 9\nvalue = 10.84", fillcolor="#f3c3a1"] ;
813 -> 817 ;
818 [label="sulphates <= 0.45\nsquared_error = 0.01\nsamples = 7\nvalue = 10.92", fillcolor="#f2c29f"] ;
817 -> 818 ;
819 [label="squared_error = -0.0\nsamples = 2\nvalue = 10.8", fillcolor="#f3c4a3"] ;
818 -> 819 ;
820 [label="sulphates <= 0.5\nsquared_error = 0.01\nsamples = 5\nvalue = 10.98", fillcolor="#f2c09d"] ;
818 -> 820 ;
821 [label="density <= 0.99\nsquared_error = 0.0\nsamples = 3\nvalue = 11.07", fillcolor="#f2bf9a"] ;
820 -> 821 ;
822 [label="squared_error = -0.0\nsamples = 2\nvalue = 11.1", fillcolor="#f2be99"] ;
821 -> 822 ;
823 [label="squared_error = -0.0\nsamples = 1\nvalue = 11.0", fillcolor="#f2c09c"] ;
821 -> 823 ;
824 [label="squared_error = 0.0\nsamples = 2\nvalue = 10.9", fillcolor="#f2c29f"] ;
820 -> 824 ;
825 [label="pH <= 3.08\nsquared_error = 0.0\nsamples = 2\nvalue = 10.65", fillcolor="#f4c7a8"] ;
817 -> 825 ;
826 [label="squared_error = 0.0\nsamples = 1\nvalue = 10.6", fillcolor="#f4c8a9"] ;
825 -> 826 ;
827 [label="squared_error = 0.0\nsamples = 1\nvalue = 10.7", fillcolor="#f3c6a6"] ;
825 -> 827 ;
828 [label="fixed acidity <= 7.55\nsquared_error = 0.25\nsamples = 22\nvalue = 11.57", fillcolor="#f0b489"] ;
712 -> 828 ;
829 [label="total sulfur dioxide <= 123.5\nsquared_error = 0.13\nsamples = 18\nvalue = 11.42", fillcolor="#f0b78e"] ;
828 -> 829 ;
830 [label="citric acid <= 0.36\nsquared_error = 0.08\nsamples = 15\nvalue = 11.29", fillcolor="#f1ba92"] ;
829 -> 830 ;
831 [label="residual sugar <= 2.05\nsquared_error = 0.05\nsamples = 13\nvalue = 11.23", fillcolor="#f1bb95"] ;
830 -> 831 ;
832 [label="free sulfur dioxide <= 35.0\nsquared_error = 0.01\nsamples = 5\nvalue = 10.96", fillcolor="#f2c19d"] ;
831 -> 832 ;
833 [label="sulphates <= 0.66\nsquared_error = 0.0\nsamples = 3\nvalue = 11.02", fillcolor="#f2c09b"] ;
832 -> 833 ;
834 [label="squared_error = 0.0\nsamples = 1\nvalue = 11.1", fillcolor="#f2be99"] ;
833 -> 834 ;
835 [label="citric acid <= 0.33\nsquared_error = 0.0\nsamples = 2\nvalue = 11.0", fillcolor="#f2c09c"] ;
833 -> 835 ;
836 [label="squared_error = 0.0\nsamples = 1\nvalue = 11.0", fillcolor="#f2c09c"] ;
835 -> 836 ;
837 [label="squared_error = 0.0\nsamples = 1\nvalue = 11.0", fillcolor="#f2c09c"] ;
835 -> 837 ;
838 [label="squared_error = 0.0\nsamples = 2\nvalue = 10.8", fillcolor="#f3c4a3"] ;
832 -> 838 ;
839 [label="fixed acidity <= 6.45\nsquared_error = 0.01\nsamples = 8\nvalue = 11.36", fillcolor="#f0b890"] ;
831 -> 839 ;
840 [label="citric acid <= 0.29\nsquared_error = 0.01\nsamples = 2\nvalue = 11.57", fillcolor="#f0b489"] ;
839 -> 840 ;
841 [label="squared_error = 0.0\nsamples = 1\nvalue = 11.5", fillcolor="#f0b68c"] ;
840 -> 841 ;
842 [label="squared_error = -0.0\nsamples = 1\nvalue = 11.7", fillcolor="#efb185"] ;
840 -> 842 ;
843 [label="volatile acidity <= 0.15\nsquared_error = 0.0\nsamples = 6\nvalue = 11.31", fillcolor="#f1ba92"] ;
839 -> 843 ;
844 [label="squared_error = 0.0\nsamples = 2\nvalue = 11.33", fillcolor="#f1b991"] ;
843 -> 844 ;
845 [label="volatile acidity <= 0.19\nsquared_error = 0.0\nsamples = 4\nvalue = 11.3", fillcolor="#f1ba92"] ;
843 -> 845 ;
846 [label="squared_error = 0.0\nsamples = 1\nvalue = 11.3", fillcolor="#f1ba92"] ;
845 -> 846 ;
847 [label="pH <= 3.04\nsquared_error = 0.0\nsamples = 3\nvalue = 11.3", fillcolor="#f1ba92"] ;
845 -> 847 ;
848 [label="squared_error = 0.0\nsamples = 1\nvalue = 11.3", fillcolor="#f1ba92"] ;
847 -> 848 ;
849 [label="residual sugar <= 2.6\nsquared_error = 0.0\nsamples = 2\nvalue = 11.3", fillcolor="#f1ba92"] ;
847 -> 849 ;
850 [label="squared_error = 0.0\nsamples = 1\nvalue = 11.3", fillcolor="#f1ba92"] ;
849 -> 850 ;
851 [label="squared_error = 0.0\nsamples = 1\nvalue = 11.3", fillcolor="#f1ba92"] ;
849 -> 851 ;
852 [label="citric acid <= 0.38\nsquared_error = 0.01\nsamples = 2\nvalue = 11.77", fillcolor="#efb083"] ;
830 -> 852 ;
853 [label="squared_error = 0.0\nsamples = 1\nvalue = 11.9", fillcolor="#eead7e"] ;
852 -> 853 ;
854 [label="squared_error = 0.0\nsamples = 1\nvalue = 11.7", fillcolor="#efb185"] ;
852 -> 854 ;
855 [label="pH <= 3.23\nsquared_error = 0.03\nsamples = 3\nvalue = 11.93", fillcolor="#eeac7d"] ;
829 -> 855 ;
856 [label="residual sugar <= 1.45\nsquared_error = 0.01\nsamples = 2\nvalue = 12.05", fillcolor="#edaa79"] ;
855 -> 856 ;
857 [label="squared_error = 0.0\nsamples = 1\nvalue = 12.0", fillcolor="#eeab7b"] ;
856 -> 857 ;
858 [label="squared_error = -0.0\nsamples = 1\nvalue = 12.2", fillcolor="#eda774"] ;
856 -> 858 ;
859 [label="squared_error = 0.0\nsamples = 1\nvalue = 11.7", fillcolor="#efb185"] ;
855 -> 859 ;
860 [label="citric acid <= 0.3\nsquared_error = 0.09\nsamples = 4\nvalue = 12.44", fillcolor="#eca26c"] ;
828 -> 860 ;
861 [label="squared_error = 0.0\nsamples = 1\nvalue = 11.9", fillcolor="#eead7e"] ;
860 -> 861 ;
862 [label="quality <= 6.5\nsquared_error = 0.02\nsamples = 3\nvalue = 12.58", fillcolor="#eb9f68"] ;
860 -> 862 ;
863 [label="squared_error = 0.0\nsamples = 1\nvalue = 12.8", fillcolor="#ea9a61"] ;
862 -> 863 ;
864 [label="squared_error = 0.0\nsamples = 2\nvalue = 12.5", fillcolor="#eca06a"] ;
862 -> 864 ;
865 [label="volatile acidity <= 0.27\nsquared_error = 0.35\nsamples = 111\nvalue = 12.29", fillcolor="#eca572"] ;
355 -> 865 ;
866 [label="residual sugar <= 5.25\nsquared_error = 0.32\nsamples = 26\nvalue = 11.82", fillcolor="#eeaf81"] ;
865 -> 866 ;
867 [label="chlorides <= 0.03\nsquared_error = 0.13\nsamples = 11\nvalue = 11.43", fillcolor="#f0b78e"] ;
866 -> 867 ;
868 [label="sulphates <= 0.34\nsquared_error = 0.08\nsamples = 3\nvalue = 11.95", fillcolor="#eeac7d"] ;
867 -> 868 ;
869 [label="squared_error = 0.0\nsamples = 1\nvalue = 11.5", fillcolor="#f0b68c"] ;
868 -> 869 ;
870 [label="free sulfur dioxide <= 49.5\nsquared_error = 0.02\nsamples = 2\nvalue = 12.1", fillcolor="#eda978"] ;
868 -> 870 ;
871 [label="squared_error = 0.0\nsamples = 1\nvalue = 12.0", fillcolor="#eeab7b"] ;
870 -> 871 ;
872 [label="squared_error = 0.0\nsamples = 1\nvalue = 12.3", fillcolor="#eca571"] ;
870 -> 872 ;
873 [label="sulphates <= 0.49\nsquared_error = 0.07\nsamples = 8\nvalue = 11.32", fillcolor="#f1b991"] ;
867 -> 873 ;
874 [label="free sulfur dioxide <= 34.0\nsquared_error = 0.02\nsamples = 6\nvalue = 11.41", fillcolor="#f0b78e"] ;
873 -> 874 ;
875 [label="chlorides <= 0.04\nsquared_error = 0.0\nsamples = 3\nvalue = 11.55", fillcolor="#f0b48a"] ;
874 -> 875 ;
876 [label="squared_error = -0.0\nsamples = 2\nvalue = 11.5", fillcolor="#f0b68c"] ;
875 -> 876 ;
877 [label="squared_error = 0.0\nsamples = 1\nvalue = 11.6", fillcolor="#efb388"] ;
875 -> 877 ;
878 [label="chlorides <= 0.04\nsquared_error = 0.0\nsamples = 3\nvalue = 11.27", fillcolor="#f1ba93"] ;
874 -> 878 ;
879 [label="free sulfur dioxide <= 52.5\nsquared_error = 0.0\nsamples = 2\nvalue = 11.3", fillcolor="#f1ba92"] ;
878 -> 879 ;
880 [label="squared_error = 0.0\nsamples = 1\nvalue = 11.3", fillcolor="#f1ba92"] ;
879 -> 880 ;
881 [label="squared_error = -0.0\nsamples = 1\nvalue = 11.3", fillcolor="#f1ba92"] ;
879 -> 881 ;
882 [label="squared_error = -0.0\nsamples = 1\nvalue = 11.2", fillcolor="#f1bc95"] ;
878 -> 882 ;
883 [label="fixed acidity <= 6.65\nsquared_error = 0.06\nsamples = 2\nvalue = 10.83", fillcolor="#f3c4a2"] ;
873 -> 883 ;
884 [label="squared_error = 0.0\nsamples = 1\nvalue = 11.0", fillcolor="#f2c09c"] ;
883 -> 884 ;
885 [label="squared_error = 0.0\nsamples = 1\nvalue = 10.5", fillcolor="#f4caac"] ;
883 -> 885 ;
886 [label="pH <= 3.0\nsquared_error = 0.25\nsamples = 15\nvalue = 12.16", fillcolor="#eda876"] ;
866 -> 886 ;
887 [label="chlorides <= 0.04\nsquared_error = 0.04\nsamples = 2\nvalue = 11.3", fillcolor="#f1ba92"] ;
886 -> 887 ;
888 [label="squared_error = 0.0\nsamples = 1\nvalue = 11.5", fillcolor="#f0b68c"] ;
887 -> 888 ;
889 [label="squared_error = -0.0\nsamples = 1\nvalue = 11.1", fillcolor="#f2be99"] ;
887 -> 889 ;
890 [label="residual sugar <= 7.73\nsquared_error = 0.13\nsamples = 13\nvalue = 12.31", fillcolor="#eca571"] ;
886 -> 890 ;
891 [label="density <= 0.99\nsquared_error = 0.06\nsamples = 11\nvalue = 12.23", fillcolor="#eda673"] ;
890 -> 891 ;
892 [label="chlorides <= 0.03\nsquared_error = 0.01\nsamples = 3\nvalue = 12.52", fillcolor="#eba06a"] ;
891 -> 892 ;
893 [label="total sulfur dioxide <= 99.5\nsquared_error = 0.0\nsamples = 2\nvalue = 12.48", fillcolor="#eca16b"] ;
892 -> 893 ;
894 [label="squared_error = 0.0\nsamples = 1\nvalue = 12.5", fillcolor="#eca06a"] ;
893 -> 894 ;
895 [label="squared_error = 0.0\nsamples = 1\nvalue = 12.4", fillcolor="#eca36e"] ;
893 -> 895 ;
896 [label="squared_error = -0.0\nsamples = 1\nvalue = 12.7", fillcolor="#eb9c64"] ;
892 -> 896 ;
897 [label="pH <= 3.22\nsquared_error = 0.04\nsamples = 8\nvalue = 12.11", fillcolor="#eda977"] ;
891 -> 897 ;
898 [label="volatile acidity <= 0.19\nsquared_error = 0.02\nsamples = 3\nvalue = 11.96", fillcolor="#eeac7c"] ;
897 -> 898 ;
899 [label="squared_error = 0.0\nsamples = 1\nvalue = 12.1", fillcolor="#eda978"] ;
898 -> 899 ;
900 [label="citric acid <= 0.34\nsquared_error = 0.0\nsamples = 2\nvalue = 11.85", fillcolor="#eeae80"] ;
898 -> 900 ;
901 [label="squared_error = 0.0\nsamples = 1\nvalue = 11.9", fillcolor="#eead7e"] ;
900 -> 901 ;
902 [label="squared_error = -0.0\nsamples = 1\nvalue = 11.8", fillcolor="#efaf82"] ;
900 -> 902 ;
903 [label="total sulfur dioxide <= 148.5\nsquared_error = 0.02\nsamples = 5\nvalue = 12.25", fillcolor="#eda673"] ;
897 -> 903 ;
904 [label="squared_error = -0.0\nsamples = 4\nvalue = 12.2", fillcolor="#eda774"] ;
903 -> 904 ;
905 [label="squared_error = 0.0\nsamples = 1\nvalue = 12.6", fillcolor="#eb9e67"] ;
903 -> 905 ;
906 [label="chlorides <= 0.02\nsquared_error = 0.06\nsamples = 2\nvalue = 13.15", fillcolor="#e99355"] ;
890 -> 906 ;
907 [label="squared_error = 0.0\nsamples = 1\nvalue = 13.4", fillcolor="#e88e4d"] ;
906 -> 907 ;
908 [label="squared_error = 0.0\nsamples = 1\nvalue = 12.9", fillcolor="#ea985d"] ;
906 -> 908 ;
909 [label="free sulfur dioxide <= 36.5\nsquared_error = 0.24\nsamples = 85\nvalue = 12.47", fillcolor="#eca16c"] ;
865 -> 909 ;
910 [label="volatile acidity <= 0.38\nsquared_error = 0.18\nsamples = 60\nvalue = 12.6", fillcolor="#eb9e67"] ;
909 -> 910 ;
911 [label="total sulfur dioxide <= 116.5\nsquared_error = 0.1\nsamples = 34\nvalue = 12.43", fillcolor="#eca26d"] ;
910 -> 911 ;
912 [label="pH <= 3.25\nsquared_error = 0.08\nsamples = 21\nvalue = 12.55", fillcolor="#eb9f69"] ;
911 -> 912 ;
913 [label="pH <= 3.01\nsquared_error = 0.03\nsamples = 15\nvalue = 12.68", fillcolor="#eb9d64"] ;
912 -> 913 ;
914 [label="free sulfur dioxide <= 30.0\nsquared_error = 0.02\nsamples = 5\nvalue = 12.47", fillcolor="#eca16c"] ;
913 -> 914 ;
915 [label="free sulfur dioxide <= 17.5\nsquared_error = 0.0\nsamples = 3\nvalue = 12.55", fillcolor="#eb9f69"] ;
914 -> 915 ;
